%YAML:1.0
my_svm: !!opencv-ml-svm
   svm_type: C_SVC
   kernel: { type:RBF, gamma:5.0625000000000009e-001 }
   C: 3.1250000000000000e+002
   term_criteria: { epsilon:2.2204460492503131e-016, iterations:10000000 }
   var_all: 12
   var_count: 12
   class_count: 3
   class_labels: !!opencv-matrix
      rows: 1
      cols: 3
      dt: i
      data: [ 1, 2, 3 ]
   sv_total: 2021
   support_vectors:
      - [ 7.11111119e-003, 4.58980381e-001, 1.11199962e-002,
          4.99726497e-002, 4.46431369e-001, 6.36200011e-001,
          5.69999993e-001, 5.65474965e-002, 1.10562202e-002,
          1.46969389e-002, 4.17568624e-001, 5.58164977e-002 ]
      - [ 2.42222231e-002, 5.61254919e-001, 2.30683368e-002,
          8.86187479e-002, 4.52549011e-001, 6.53199971e-001,
          6.10800028e-001, 1.07617952e-001, 3.71892452e-002,
          1.54090878e-002, 4.17725503e-001, 1.11802593e-001 ]
      - [ 9.01777804e-001, 3.78980398e-001, 5.32274127e-001,
          1.03886411e-001, 3.48078430e-001, 5.94600022e-001,
          5.24399996e-001, 4.92125340e-002, 2.72646286e-002,
          1.68095212e-002, 3.26431364e-001, 4.75204512e-002 ]
      - [ 2.48888880e-002, 6.15372539e-001, 8.38576071e-003,
          9.63058770e-002, 2.61647046e-001, 6.11800015e-001,
          5.82000017e-001, 6.87350631e-002, 1.38217220e-002,
          8.94427206e-003, 2.40784317e-001, 6.40463009e-002 ]
      - [ 3.64444442e-002, 4.46745098e-001, 9.97775327e-003,
          2.89455503e-002, 5.45725465e-001, 6.12399995e-001,
          5.97199976e-001, 2.21236032e-002, 1.13560557e-002,
          1.29861468e-002, 5.16392171e-001, 2.27906182e-002 ]
      - [ 4.79333341e-001, 4.39372540e-001, 9.80095863e-001,
          3.51770259e-002, 3.10588241e-001, 5.98800004e-001,
          5.42400002e-001, 3.52840275e-002, 1.27373468e-002,
          1.65215004e-002, 2.90666670e-001, 3.27559039e-002 ]
      - [ 5.55555582e-001, 4.70117658e-001, 9.64505911e-001,
          6.81480467e-002, 3.09019595e-001, 6.09399974e-001,
          5.43600023e-001, 3.73331308e-002, 2.73232497e-002,
          2.01037303e-002, 2.88313717e-001, 3.45826186e-002 ]
      - [ 4.38222229e-001, 4.14431363e-001, 9.73624110e-001,
          7.57125020e-002, 3.22823524e-001, 5.95200002e-001,
          5.38999975e-001, 2.94382907e-002, 1.96936540e-002,
          1.76635217e-002, 3.02117646e-001, 2.75009517e-002 ]
      - [ 6.36222243e-001, 5.08705854e-001, 9.25795615e-001,
          1.08273186e-001, 2.67607838e-001, 6.06400013e-001,
          5.43399990e-001, 6.14084378e-002, 4.06467728e-002,
          1.82690993e-002, 2.49411762e-001, 5.66053577e-002 ]
      - [ 2.51111109e-002, 5.61098039e-001, 5.55110956e-003,
          3.99590582e-002, 4.47529405e-001, 6.49600029e-001,
          6.10400021e-001, 4.30310443e-002, 1.09251998e-002,
          4.83321818e-003, 4.12235290e-001, 4.30310443e-002 ]
      - [ 2.17777770e-002, 6.31843150e-001, 8.26714467e-003,
          9.15371180e-002, 2.20549017e-001, 6.05400026e-001,
          5.74999988e-001, 3.82051282e-002, 1.64730083e-002,
          1.09544508e-002, 2.04549015e-001, 3.69109139e-002 ]
      - [ 3.61777782e-001, 5.19372523e-001, 9.36150908e-001,
          1.43800825e-001, 2.63843149e-001, 6.06599987e-001,
          5.50000012e-001, 9.69884396e-002, 1.84867512e-002,
          2.31516734e-002, 2.46588230e-001, 8.95651877e-002 ]
      - [ 5.20444453e-001, 5.02588212e-001, 9.76093113e-001,
          1.02801718e-001, 2.84235299e-001, 6.09600008e-001,
          5.50000012e-001, 3.87106985e-002, 2.93829888e-002,
          2.07846090e-002, 2.64156848e-001, 3.80490161e-002 ]
      - [ 7.09999979e-001, 4.49411750e-001, 8.75758588e-001,
          9.69239846e-002, 3.21725488e-001, 6.09600008e-001,
          5.37599981e-001, 3.39573734e-002, 3.45160849e-002,
          1.44554488e-002, 3.00705880e-001, 3.24821994e-002 ]
      - [ 4.44444455e-003, 4.71215695e-001, 1.08866207e-002,
          3.91920395e-002, 2.93176472e-001, 6.02999985e-001,
          5.50400019e-001, 2.06869449e-002, 6.92820316e-003,
          1.12853888e-002, 2.72784323e-001, 1.91686600e-002 ]
      - [ 3.62222232e-002, 3.06196064e-001, 4.37862389e-002,
          2.14044884e-001, 7.04156876e-001, 5.84800005e-001,
          5.68000019e-001, 3.45058590e-001, 7.85610601e-002,
          2.15406585e-002, 6.85176492e-001, 3.62516254e-001 ]
      - [ 1.06666666e-002, 5.52313745e-001, 1.17252497e-002,
          8.94366205e-002, 4.29647058e-001, 6.65799975e-001,
          5.97000003e-001, 7.94325471e-002, 3.25797498e-002,
          1.46969389e-002, 3.94980401e-001, 8.47917050e-002 ]
      - [ 5.55555560e-002, 6.18980408e-001, 8.31479393e-003,
          6.99212626e-002, 3.15450966e-001, 5.85399985e-001,
          6.07999980e-001, 4.29595225e-002, 6.88186008e-003,
          1.29614817e-002, 2.89254904e-001, 3.96700390e-002 ]
      - [ 2.33333334e-002, 4.31843132e-001, 9.93807986e-003,
          1.66681141e-001, 5.91215670e-001, 6.30599976e-001,
          5.89999974e-001, 2.36506701e-001, 3.54761891e-002,
          2.74226181e-002, 5.64862728e-001, 2.50720143e-001 ]
      - [ 9.11555529e-001, 6.31372571e-001, 5.37630081e-001,
          8.79637152e-002, 2.85960793e-001, 6.62400007e-001,
          5.72799981e-001, 5.54062203e-002, 1.29984617e-002,
          9.41488147e-003, 2.56313711e-001, 5.61160520e-002 ]
      - [ 2.55555548e-002, 4.03921574e-001, 2.41395123e-002,
          5.23251891e-002, 5.67215681e-001, 6.15400016e-001,
          5.81799984e-001, 7.68232793e-002, 3.83583121e-002,
          1.09105455e-002, 5.39607823e-001, 7.71492869e-002 ]
      - [ 2.62666672e-001, 4.12235290e-001, 8.29710782e-001,
          2.47021511e-001, 2.90823519e-001, 5.47599971e-001,
          5.49799979e-001, 2.41655886e-001, 1.95102438e-001,
          1.49759278e-001, 2.64313728e-001, 1.34145126e-001 ]
      - [ 2.06666663e-002, 5.51843166e-001, 8.02465342e-003,
          3.88002880e-002, 4.83921558e-001, 6.64799988e-001,
          6.13799989e-001, 4.27233391e-002, 1.70833245e-002,
          9.91160981e-003, 4.48470592e-001, 4.34645675e-002 ]
      - [ 5.35555556e-002, 5.82588255e-001, 3.84410799e-001,
          1.04983516e-001, 3.20313722e-001, 6.38000011e-001,
          5.82799971e-001, 7.99503848e-002, 3.01993378e-002,
          6.97423844e-003, 2.92705894e-001, 8.13086554e-002 ]
      - [ 7.53555536e-001, 5.49333334e-001, 8.46954644e-001,
          8.20688531e-002, 3.35058838e-001, 6.51600003e-001,
          5.63000023e-001, 6.83936104e-002, 9.26066935e-003,
          6.32455526e-003, 3.06980401e-001, 6.69067129e-002 ]
      - [ 4.88888891e-003, 4.86117661e-001, 6.53197244e-003,
          2.74106245e-002, 4.90823537e-001, 6.65000021e-001,
          5.83400011e-001, 1.12859672e-002, 2.31516734e-002,
          7.33212102e-003, 4.58509803e-001, 1.23840021e-002 ]
      - [ 9.90666687e-001, 5.42274535e-001, 9.28027276e-003,
          5.65843247e-002, 3.38039219e-001, 6.49999976e-001,
          5.59599996e-001, 4.93494160e-002, 9.79795866e-003,
          7.95989949e-003, 3.10588241e-001, 4.93494160e-002 ]
      - [ 3.95555571e-002, 7.11058795e-001, 3.61068384e-003,
          3.58916968e-002, 2.97568619e-001, 6.29199982e-001,
          6.22600019e-001, 3.09656113e-002, 1.04613574e-002,
          8.05977639e-003, 2.67764717e-001, 2.87391860e-002 ]
      - [ 3.62222232e-002, 3.06196064e-001, 4.37862389e-002,
          2.14044884e-001, 7.04156876e-001, 5.84800005e-001,
          5.68000019e-001, 3.45058590e-001, 7.85610601e-002,
          2.15406585e-002, 6.85176492e-001, 3.62516254e-001 ]
      - [ 3.26666683e-002, 6.93019629e-001, 3.61068384e-003,
          4.63174209e-002, 2.59450972e-001, 6.21399999e-001,
          6.03600025e-001, 1.95021424e-002, 1.21720992e-002,
          8.72696936e-003, 2.34980389e-001, 1.83543973e-002 ]
      - [ 2.82000005e-001, 4.27921563e-001, 8.84674907e-001,
          4.69977818e-002, 4.17882353e-001, 6.21599972e-001,
          5.54199994e-001, 5.64333498e-002, 1.93328727e-002,
          1.00717423e-002, 3.91058832e-001, 5.50289489e-002 ]
      - [ 8.24444473e-001, 3.98745090e-001, 7.16107428e-001,
          5.56206554e-002, 2.18352944e-001, 5.69400012e-001,
          5.18599987e-001, 4.39096242e-002, 4.30813199e-003,
          1.34223690e-002, 2.08941177e-001, 3.82207036e-002 ]
      - [ 3.75555567e-002, 7.37568617e-001, 4.74536791e-003,
          6.39269203e-002, 3.25333327e-001, 6.48999989e-001,
          6.40600026e-001, 3.18468660e-002, 1.81107707e-002,
          1.33626349e-002, 2.89098024e-001, 3.37405019e-002 ]
      - [ 2.99999993e-002, 5.35843134e-001, 1.25707872e-002,
          9.80908945e-002, 2.43921563e-001, 5.80200016e-001,
          5.62399983e-001, 6.76615760e-002, 1.61195528e-002,
          6.99714245e-003, 2.28705883e-001, 6.18687235e-002 ]
      - [ 3.20000015e-002, 6.37490213e-001, 1.00762527e-002,
          1.05030753e-001, 2.77803928e-001, 6.11999989e-001,
          5.94200015e-001, 6.57913461e-002, 1.89736653e-002,
          9.24337562e-003, 2.54274517e-001, 6.35284260e-002 ]
      - [ 4.66666669e-002, 4.64313716e-001, 3.87138933e-001,
          4.40944880e-002, 3.98588240e-001, 6.25599980e-001,
          5.64199984e-001, 5.61160520e-002, 1.81813091e-002,
          7.31026661e-003, 3.70980382e-001, 5.55885434e-002 ]
      - [ 8.88888910e-003, 5.03686249e-001, 5.44331037e-003,
          4.03395593e-002, 4.61490184e-001, 6.57800019e-001,
          5.86799979e-001, 4.67544161e-002, 2.13691369e-002,
          9.32952296e-003, 4.28862751e-001, 4.66035306e-002 ]
      - [ 1.64222226e-001, 4.70431387e-001, 7.24717617e-001,
          4.30402644e-002, 3.68000001e-001, 6.25199974e-001,
          5.60599983e-001, 2.41597593e-002, 1.27999997e-002,
          1.33626349e-002, 3.41490209e-001, 2.34555807e-002 ]
      - [ 5.55333316e-001, 6.15686297e-001, 9.81837451e-001,
          1.01302817e-001, 2.66666681e-001, 6.48000002e-001,
          5.68400025e-001, 3.86388786e-002, 2.60768104e-002,
          8.35224520e-003, 2.40941182e-001, 3.94694805e-002 ]
      - [ 2.82222219e-002, 6.04392171e-001, 1.33036710e-002,
          7.39091188e-002, 2.89254904e-001, 6.12999976e-001,
          5.88199973e-001, 4.51108962e-002, 2.19089016e-002,
          1.22898333e-002, 2.65568614e-001, 4.44038622e-002 ]
      - [ 1.88888889e-002, 6.01098061e-001, 5.44331037e-003,
          6.89512044e-002, 2.84549028e-001, 6.24199986e-001,
          5.82199991e-001, 4.47133183e-002, 1.00717423e-002,
          1.16893109e-002, 2.61019617e-001, 4.26698998e-002 ]
      - [ 3.51111107e-002, 3.97176474e-001, 1.28505174e-002,
          1.61607653e-001, 5.02901971e-001, 5.85399985e-001,
          5.73199987e-001, 2.56420135e-001, 2.26132702e-002,
          1.22898333e-002, 4.76705879e-001, 2.59112120e-001 ]
      - [ 5.66666685e-002, 5.17803907e-001, 1.13267958e-001,
          2.08915070e-001, 1.88549027e-001, 5.22599995e-001,
          5.59599996e-001, 2.83332616e-001, 1.85172781e-001,
          1.45297483e-001, 1.74117640e-001, 1.70370117e-001 ]
      - [ 6.27555549e-001, 3.94039214e-001, 9.24933016e-001,
          7.22393617e-002, 2.21333340e-001, 5.65599978e-001,
          5.19999981e-001, 6.63693100e-002, 1.39484769e-002,
          1.91833265e-002, 2.11764708e-001, 5.75180538e-002 ]
      - [ 3.48888896e-002, 7.02588260e-001, 8.02465342e-003,
          3.58197615e-002, 2.89568633e-001, 6.29800022e-001,
          6.16800010e-001, 2.50665918e-002, 9.99199692e-003,
          7.41889467e-003, 2.59607852e-001, 2.33581048e-002 ]
      - [ 2.42222231e-002, 5.97803950e-001, 8.24321620e-003,
          4.57550101e-002, 4.00000006e-001, 6.50799990e-001,
          6.12600029e-001, 3.87670361e-002, 1.43331783e-002,
          4.99599846e-003, 3.66117656e-001, 4.02657166e-002 ]
      - [ 1.15555553e-002, 5.82431376e-001, 1.08502712e-002,
          5.28026596e-002, 2.14274511e-001, 6.03399992e-001,
          5.59599996e-001, 3.18001062e-002, 1.46205332e-002,
          5.59999980e-003, 2.00470582e-001, 3.04812901e-002 ]
      - [ 4.22222205e-002, 4.19294119e-001, 1.33333337e-002,
          3.45682725e-002, 5.47921598e-001, 5.94799995e-001,
          5.92599988e-001, 3.30723673e-002, 1.42772542e-002,
          1.38910040e-002, 5.19215703e-001, 3.50017510e-002 ]
      - [ 2.87777781e-001, 3.46352935e-001, 8.75561178e-001,
          3.29371132e-002, 2.55058825e-001, 5.56200027e-001,
          5.27400017e-001, 4.92226146e-002, 1.10562202e-002,
          1.41760362e-002, 2.41568625e-001, 4.33571637e-002 ]
      - [ 1.86666660e-002, 4.74039227e-001, 8.24321620e-003,
          4.10247557e-002, 4.17098045e-001, 6.20999992e-001,
          5.75800002e-001, 2.96196993e-002, 1.46969389e-002,
          1.37637202e-002, 3.89176458e-001, 2.81955730e-002 ]
      - [ 2.22222228e-002, 4.42666680e-001, 9.93807986e-003,
          4.81961817e-002, 2.61803925e-001, 5.69999993e-001,
          5.46999991e-001, 2.16247477e-002, 1.26491105e-002,
          6.32455526e-003, 2.45490193e-001, 1.96692850e-002 ]
      - [ 2.28888895e-002, 6.08627439e-001, 7.24866940e-003,
          7.74380490e-002, 3.14039230e-001, 6.31399989e-001,
          5.92599988e-001, 5.57186641e-002, 9.17387567e-003,
          1.06282644e-002, 2.86745101e-001, 5.54241240e-002 ]
      - [ 9.75333333e-001, 2.80000001e-001, 8.36217217e-003,
          1.39705539e-001, 6.43607855e-001, 6.09399974e-001,
          5.20399988e-001, 1.34538710e-001, 5.11718690e-002,
          1.16344318e-002, 6.23372555e-001, 1.39500901e-001 ]
      - [ 4.39999998e-002, 8.03921580e-001, 1.18213870e-001,
          8.60540196e-002, 4.32470590e-001, 6.93400025e-001,
          7.03800023e-001, 1.84144527e-001, 2.54585475e-001,
          8.65461752e-002, 3.65176469e-001, 9.48371515e-002 ]
      - [ 2.84444448e-002, 4.43607837e-001, 1.51763298e-002,
          4.01695222e-002, 4.50509816e-001, 6.03600025e-001,
          5.78199983e-001, 5.10450043e-002, 2.06920281e-002,
          9.74884629e-003, 4.22588229e-001, 5.05057797e-002 ]
      - [ 2.28888895e-002, 4.47686285e-001, 1.51763298e-002,
          5.32963276e-002, 5.14352918e-001, 6.27200007e-001,
          5.84999979e-001, 6.19872622e-002, 2.85769142e-002,
          8.00000038e-003, 4.84549016e-001, 6.45507947e-002 ]
      - [ 3.02222222e-002, 5.56235313e-001, 7.08327908e-003,
          7.91071728e-002, 3.79607856e-001, 6.21399999e-001,
          5.96199989e-001, 7.49645978e-002, 9.60000046e-003,
          1.24193402e-002, 3.50431383e-001, 7.33554065e-002 ]
      - [ 4.26666662e-002, 5.08862734e-001, 3.86330903e-001,
          2.59034783e-002, 3.53098035e-001, 6.38000011e-001,
          5.66999972e-001, 1.97297130e-002, 6.32455526e-003,
          9.38083138e-003, 3.26431364e-001, 1.81314498e-002 ]
      - [ 9.99999978e-003, 5.24549007e-001, 6.28539361e-003,
          7.91573226e-002, 4.25254911e-001, 6.52999997e-001,
          5.87400019e-001, 7.10611492e-002, 1.05830049e-002,
          1.23677002e-002, 3.93254906e-001, 7.28002042e-002 ]
      - [ 1.77777782e-002, 4.76392150e-001, 4.44444455e-003,
          6.04658797e-002, 4.85019594e-001, 6.38999999e-001,
          5.86600006e-001, 4.92347032e-002, 1.26491105e-002,
          1.15654655e-002, 4.54431385e-001, 5.09963967e-002 ]
      - [ 2.88888887e-002, 3.39450985e-001, 3.12694386e-002,
          2.15524688e-001, 6.90823555e-001, 6.03999972e-001,
          5.74000001e-001, 3.07902664e-001, 7.61051923e-002,
          2.82842703e-002, 6.71372533e-001, 3.28133970e-001 ]
      - [ 2.28888895e-002, 5.64235270e-001, 9.59423650e-003,
          6.01863302e-002, 3.77882361e-001, 6.36399984e-001,
          5.95200002e-001, 6.14730231e-002, 1.68570466e-002,
          8.23650416e-003, 3.47137243e-001, 6.11591600e-002 ]
      - [ 1.86666660e-002, 5.67215681e-001, 8.82197078e-003,
          6.89281821e-002, 3.11843127e-001, 6.22600019e-001,
          5.80200016e-001, 4.71453033e-002, 9.84682702e-003,
          1.31087760e-002, 2.86745101e-001, 4.60919887e-002 ]
      - [ 2.55555548e-002, 5.35058796e-001, 8.31479393e-003,
          1.42536297e-001, 3.54509801e-001, 6.12999976e-001,
          5.82000017e-001, 1.31191596e-001, 2.03960780e-002,
          1.35646602e-002, 3.28627437e-001, 1.28787711e-001 ]
      - [ 6.88888878e-003, 4.63529408e-001, 5.69166616e-003,
          4.31277603e-002, 4.33098048e-001, 6.35599971e-001,
          5.69800019e-001, 2.44048759e-002, 9.92773846e-003,
          1.14821605e-002, 4.04078424e-001, 2.60181129e-002 ]
      - [ 1.77777782e-002, 5.74274480e-001, 1.17588947e-002,
          5.81219718e-002, 4.24941182e-001, 6.61400020e-001,
          6.07200027e-001, 5.25087640e-002, 2.69102212e-002,
          5.71314292e-003, 3.90117645e-001, 5.53704016e-002 ]
      - [ 2.83555567e-001, 5.04941165e-001, 8.86644304e-001,
          4.78843749e-002, 3.16078424e-001, 6.21599972e-001,
          5.59800029e-001, 3.66628245e-002, 1.19063007e-002,
          7.19999988e-003, 2.92549014e-001, 3.58419120e-002 ]
      - [ 2.24444438e-002, 5.25960803e-001, 1.06481323e-002,
          3.89788449e-002, 4.68392164e-001, 6.46799982e-001,
          6.02800012e-001, 1.68260913e-002, 1.12712020e-002,
          1.60199869e-002, 4.35450971e-001, 1.90908760e-002 ]
      - [ 1.41333327e-001, 6.55843139e-001, 3.13578784e-001,
          6.04582012e-001, 6.52705908e-001, 3.98200005e-001,
          7.06200004e-001, 4.54401433e-001, 5.36476493e-001,
          3.41447264e-001, 5.22196054e-001, 2.87622005e-001 ]
      - [ 4.38444436e-001, 4.86901969e-001, 9.69744384e-001,
          1.10924289e-001, 2.87058830e-001, 6.07200027e-001,
          5.45000017e-001, 3.41409184e-002, 3.92000005e-002,
          1.76635217e-002, 2.67607838e-001, 3.39427628e-002 ]
      - [ 7.08444417e-001, 3.47921580e-001, 8.83674264e-001,
          3.13793123e-002, 2.27607846e-001, 5.59400022e-001,
          5.17799973e-001, 2.77701691e-002, 7.65245082e-003,
          8.52291007e-003, 2.17098042e-001, 2.39742771e-002 ]
      - [ 2.13333331e-002, 4.96156871e-001, 8.12251866e-003,
          1.35746211e-001, 4.34039205e-001, 6.25999987e-001,
          5.84599972e-001, 1.60841614e-001, 2.13541556e-002,
          1.19733037e-002, 4.05333340e-001, 1.63429067e-001 ]
      - [ 1.31111108e-002, 5.45568645e-001, 8.82197078e-003,
          3.78817916e-002, 4.16156858e-001, 6.55600011e-001,
          5.93200028e-001, 3.13635021e-002, 1.42323580e-002,
          8.89044441e-003, 3.83215696e-001, 3.28466333e-002 ]
      - [ 8.35555568e-002, 5.34431398e-001, 5.37267685e-001,
          3.77637669e-002, 4.28235292e-001, 6.70199990e-001,
          5.86399972e-001, 3.25035714e-002, 1.61195528e-002,
          6.64529903e-003, 3.94039214e-001, 3.47257480e-002 ]
      - [ 2.17777770e-002, 4.31058824e-001, 1.80315226e-002,
          7.16464445e-002, 4.50666666e-001, 6.06400013e-001,
          5.70800006e-001, 1.05427630e-001, 2.06920281e-002,
          1.08369738e-002, 4.22745109e-001, 1.04222946e-001 ]
      - [ 3.26888889e-001, 3.48549008e-001, 9.00916815e-001,
          3.43090296e-002, 2.57254899e-001, 5.57200015e-001,
          5.27000010e-001, 2.93775722e-002, 1.96122415e-002,
          1.54919336e-002, 2.43294120e-001, 2.57305671e-002 ]
      - [ 4.48888876e-002, 3.88705879e-001, 3.87724221e-001,
          4.79899123e-002, 4.55843151e-001, 6.14600003e-001,
          5.52800000e-001, 5.83434291e-002, 1.41194900e-002,
          9.41488147e-003, 4.28862751e-001, 5.72968721e-002 ]
      - [ 7.55555555e-003, 4.23058838e-001, 9.36502591e-003,
          2.50309501e-002, 2.51921564e-001, 5.76799989e-001,
          5.37599981e-001, 2.52243951e-002, 5.57135511e-003,
          4.99599846e-003, 2.37960786e-001, 2.21280865e-002 ]
      - [ 2.17777770e-002, 4.29490209e-001, 1.12962360e-002,
          5.82515411e-002, 5.43058813e-001, 6.27799988e-001,
          5.83000004e-001, 5.79099469e-002, 2.60890778e-002,
          7.48331472e-003, 5.13882339e-001, 6.06444404e-002 ]
      - [ 6.27777755e-001, 3.91215682e-001, 9.24166620e-001,
          5.17667271e-002, 2.26352945e-001, 5.66999972e-001,
          5.20600021e-001, 2.65876018e-002, 9.38083138e-003,
          2.33786218e-002, 2.16313720e-001, 2.20112186e-002 ]
      - [ 2.04444453e-002, 5.79294145e-001, 5.18306857e-003,
          5.85657395e-002, 4.39058810e-001, 6.63600028e-001,
          6.12600029e-001, 5.12950867e-002, 1.45657128e-002,
          9.84682702e-003, 4.03450966e-001, 5.40191904e-002 ]
      - [ 2.95555554e-002, 4.71215695e-001, 8.14680103e-003,
          1.80336341e-001, 4.11137253e-001, 5.99600017e-001,
          5.77400029e-001, 1.74208820e-001, 2.07692087e-002,
          1.65215004e-002, 3.84470582e-001, 1.69384405e-001 ]
      - [ 2.47777775e-001, 4.05019611e-001, 8.38216782e-001,
          4.20516692e-002, 2.63686270e-001, 5.73599994e-001,
          5.35799980e-001, 2.59990413e-002, 1.11427102e-002,
          1.18928552e-002, 2.48313725e-001, 2.38539800e-002 ]
      - [ 1.13333333e-002, 5.29254913e-001, 8.59514624e-003,
          8.91255140e-002, 5.01019597e-001, 6.77800000e-001,
          6.02400005e-001, 8.85056183e-002, 3.78502309e-002,
          1.72325280e-002, 4.65568632e-001, 9.37905982e-002 ]
      - [ 9.83555555e-001, 5.37254930e-001, 1.15384487e-002,
          1.20428689e-001, 2.60392159e-001, 6.20599985e-001,
          5.38800001e-001, 8.93900245e-002, 2.16000006e-002,
          8.61626398e-003, 2.42980391e-001, 8.42035338e-002 ]
      - [ 2.31111106e-002, 6.19294107e-001, 9.77777783e-003,
          1.65839851e-001, 2.63686270e-001, 6.13399982e-001,
          5.81399977e-001, 1.22131646e-001, 1.15654655e-002,
          1.48377893e-002, 2.42666662e-001, 1.15666479e-001 ]
      - [ 1.48888892e-002, 4.87215698e-001, 1.07588610e-002,
          4.05358113e-002, 4.03294116e-001, 6.26999974e-001,
          5.74800014e-001, 4.79050875e-002, 1.09544508e-002,
          8.23650416e-003, 3.75529408e-001, 4.74159606e-002 ]
      - [ 2.53333338e-002, 4.27764714e-001, 1.37275066e-002,
          3.10934894e-002, 5.42117655e-001, 6.21800005e-001,
          5.83800018e-001, 3.42337713e-002, 2.24285536e-002,
          1.14122741e-002, 5.13568640e-001, 3.53878960e-002 ]
      - [ 3.02222222e-002, 5.56235313e-001, 7.08327908e-003,
          7.91071728e-002, 3.79607856e-001, 6.21399999e-001,
          5.96199989e-001, 7.49645978e-002, 9.60000046e-003,
          1.24193402e-002, 3.50431383e-001, 7.33554065e-002 ]
      - [ 2.97777783e-002, 4.44392145e-001, 1.17083909e-002,
          2.42662802e-002, 5.13098061e-001, 6.16400003e-001,
          5.88400006e-001, 2.26771645e-002, 1.56256203e-002,
          1.31818056e-002, 4.83450979e-001, 2.29856540e-002 ]
      - [ 2.73333341e-002, 4.50039208e-001, 1.66058149e-002,
          6.10032491e-002, 4.26823527e-001, 6.01599991e-001,
          5.74800014e-001, 6.32545725e-002, 1.48916086e-002,
          1.42772542e-002, 3.99372548e-001, 6.24257997e-002 ]
      - [ 6.00000005e-003, 4.99764711e-001, 6.97083864e-003,
          3.33382525e-002, 4.75921571e-001, 6.65199995e-001,
          5.86600006e-001, 2.16934495e-002, 2.04899982e-002,
          6.76461402e-003, 4.42980379e-001, 2.22130995e-002 ]
      - [ 7.54000008e-001, 5.21725476e-001, 8.45359266e-001,
          9.16497558e-002, 3.42431366e-001, 6.43800020e-001,
          5.59400022e-001, 2.59455685e-002, 3.20349820e-002,
          1.24322167e-002, 3.15450966e-001, 2.75550056e-002 ]
      - [ 1.48888892e-002, 5.96705854e-001, 1.24603072e-002,
          7.48878121e-002, 2.60549009e-001, 6.20000005e-001,
          5.73800027e-001, 5.21866083e-002, 1.83303021e-002,
          7.08801812e-003, 2.39058822e-001, 4.94738892e-002 ]
      - [ 1.77777782e-002, 5.74274480e-001, 1.17588947e-002,
          5.81219718e-002, 4.24941182e-001, 6.61400020e-001,
          6.07200027e-001, 5.25087640e-002, 2.69102212e-002,
          5.71314292e-003, 3.90117645e-001, 5.53704016e-002 ]
      - [ 2.99999993e-002, 6.59764707e-001, 5.44331037e-003,
          3.30543630e-002, 3.00392151e-001, 6.30999982e-001,
          6.06800020e-001, 2.49992255e-002, 1.44222053e-002,
          7.93977361e-003, 2.72313714e-001, 2.21683960e-002 ]
      - [ 2.22222228e-002, 4.20078427e-001, 1.25707872e-002,
          3.35784070e-002, 5.25333345e-001, 6.20000005e-001,
          5.78000009e-001, 4.94237356e-002, 1.76635217e-002,
          8.00000038e-003, 4.96941179e-001, 5.11032715e-002 ]
      - [ 2.02222224e-002, 4.81254905e-001, 6.94244402e-003,
          3.62218432e-002, 4.69960779e-001, 6.34800017e-001,
          5.87000012e-001, 3.67762893e-002, 9.58331861e-003,
          8.00000038e-003, 4.38901961e-001, 3.73941958e-002 ]
      - [ 1.91111118e-002, 5.26431382e-001, 5.51541056e-003,
          4.17414941e-002, 5.63294113e-001, 6.78399980e-001,
          6.17799997e-001, 5.35377488e-002, 1.04766404e-002,
          7.52595486e-003, 5.29725492e-001, 5.76868244e-002 ]
      - [ 4.24444452e-002, 3.48705888e-001, 3.83460522e-002,
          2.42651775e-001, 6.48156881e-001, 5.83599985e-001,
          5.76200008e-001, 3.97197187e-001, 7.07966089e-002,
          2.26768609e-002, 6.26666665e-001, 4.14935976e-001 ]
      - [ 1.37777776e-002, 5.12156844e-001, 9.49073583e-003,
          6.48161098e-002, 5.52784324e-001, 6.80800021e-001,
          6.06599987e-001, 7.50796348e-002, 2.01355405e-002,
          1.54194683e-002, 5.18431365e-001, 8.13428164e-002 ]
      - [ 6.00000005e-003, 4.99764711e-001, 6.97083864e-003,
          3.33382525e-002, 4.75921571e-001, 6.65199995e-001,
          5.86600006e-001, 2.16934495e-002, 2.04899982e-002,
          6.76461402e-003, 4.42980379e-001, 2.22130995e-002 ]
      - [ 2.15555560e-002, 5.24705887e-001, 1.26958732e-002,
          1.33049905e-001, 5.06196082e-001, 6.56799972e-001,
          6.07800007e-001, 1.56958506e-001, 4.28840294e-002,
          2.78682616e-002, 4.73411769e-001, 1.64964214e-001 ]
      - [ 2.48888880e-002, 5.58901966e-001, 1.26178395e-002,
          2.56118566e-001, 2.39686280e-001, 5.82199991e-001,
          5.61200023e-001, 2.12152585e-001, 1.69894081e-002,
          1.70364324e-002, 2.26823524e-001, 1.97594568e-001 ]
      - [ 1.95555557e-002, 4.79843140e-001, 5.55110956e-003,
          3.30993496e-002, 5.08549035e-001, 6.42000020e-001,
          5.92800021e-001, 5.58431521e-002, 8.00000038e-003,
          4.96386923e-003, 4.77647066e-001, 5.64298369e-002 ]
      - [ 5.84444441e-002, 4.91607845e-001, 2.33322755e-002,
          7.35916793e-002, 1.94666669e-001, 5.38399994e-001,
          5.53399980e-001, 3.81791517e-002, 1.75999999e-002,
          8.35224520e-003, 1.85725495e-001, 3.17220241e-002 ]
      - [ 3.93333323e-002, 6.77960813e-001, 8.84433277e-003,
          6.25305921e-002, 2.03450978e-001, 5.88199973e-001,
          5.84399998e-001, 3.54467183e-002, 1.26111060e-002,
          1.21061970e-002, 1.90117642e-001, 3.08693554e-002 ]
      - [ 4.08888906e-002, 5.80235302e-001, 2.05792654e-002,
          7.60315210e-002, 1.58431366e-001, 5.55999994e-001,
          5.54400027e-001, 2.06533503e-002, 2.17255615e-002,
          9.51630156e-003, 1.55450985e-001, 1.76602788e-002 ]
      - [ 2.04444453e-002, 5.86196065e-001, 1.32292230e-002,
          1.80973873e-001, 2.86588222e-001, 6.13399982e-001,
          5.78199983e-001, 1.28265172e-001, 3.05574872e-002,
          1.32302679e-002, 2.63843149e-001, 1.24210343e-001 ]
      - [ 5.95555544e-001, 2.97098041e-001, 9.58970666e-001,
          5.92293479e-002, 6.12235308e-001, 6.05199993e-001,
          5.38999975e-001, 6.13696575e-002, 8.23650416e-003,
          2.48193480e-002, 5.88392138e-001, 6.53298497e-002 ]
      - [ 3.95555571e-002, 7.11058795e-001, 3.61068384e-003,
          3.58916968e-002, 2.97568619e-001, 6.29199982e-001,
          6.22600019e-001, 3.09656113e-002, 1.04613574e-002,
          8.05977639e-003, 2.67764717e-001, 2.87391860e-002 ]
      - [ 2.88888887e-002, 6.52862728e-001, 4.44444455e-003,
          1.25868455e-001, 2.71058828e-001, 6.18600011e-001,
          5.96000016e-001, 6.73794970e-002, 1.73251256e-002,
          1.54919336e-002, 2.47372553e-001, 6.53465539e-002 ]
      - [ 3.11111119e-002, 5.73176444e-001, 1.13311540e-002,
          5.71581945e-002, 3.09176475e-001, 6.05799973e-001,
          5.86399972e-001, 2.79659498e-002, 2.25707777e-002,
          8.25590733e-003, 2.85176456e-001, 2.82166749e-002 ]
      - [ 8.92000020e-001, 4.12862748e-001, 5.27150095e-001,
          5.37522547e-002, 1.86980397e-001, 5.66399992e-001,
          5.11799991e-001, 1.23438854e-002, 1.48377893e-002,
          1.69422552e-002, 1.82431370e-001, 9.48026311e-003 ]
      - [ 9.67999995e-001, 3.95294130e-001, 1.10128997e-002,
          1.75079584e-001, 3.88705879e-001, 6.08200014e-001,
          5.17600000e-001, 1.83304921e-001, 2.39799917e-002,
          1.60299726e-002, 3.66901964e-001, 1.79473400e-001 ]
      - [ 1.24444440e-002, 4.77647066e-001, 7.22136768e-003,
          7.38983825e-002, 4.88627464e-001, 6.48800015e-001,
          5.84399998e-001, 9.02184919e-002, 9.91160981e-003,
          1.17711509e-002, 4.58039224e-001, 9.33261886e-002 ]
      - [ 7.77777797e-003, 5.64078450e-001, 1.44016463e-002,
          7.58747905e-002, 3.02274495e-001, 6.31799996e-001,
          5.72399974e-001, 7.10904598e-002, 2.07615029e-002,
          8.99777748e-003, 2.77019620e-001, 6.93228245e-002 ]
      - [ 1.24444440e-002, 5.44784307e-001, 7.22136768e-003,
          6.54224083e-002, 4.82039213e-001, 6.77399993e-001,
          6.05000019e-001, 6.21167533e-002, 2.65510827e-002,
          1.81107707e-002, 4.46117640e-001, 6.50940612e-002 ]
      - [ 2.62666672e-001, 4.12235290e-001, 8.29710782e-001,
          2.47021511e-001, 2.90823519e-001, 5.47599971e-001,
          5.49799979e-001, 2.41655886e-001, 1.95102438e-001,
          1.49759278e-001, 2.64313728e-001, 1.34145126e-001 ]
      - [ 1.20000001e-002, 4.32941169e-001, 1.20410817e-002,
          9.67190713e-002, 4.34509814e-001, 6.15800023e-001,
          5.64199984e-001, 1.18057728e-001, 1.34699661e-002,
          1.46095855e-002, 4.07529414e-001, 1.16788827e-001 ]
      - [ 1.26666669e-002, 4.90509808e-001, 6.68146508e-003,
          4.04525213e-002, 3.22666675e-001, 6.08600020e-001,
          5.62399983e-001, 2.37288922e-002, 6.64529903e-003,
          8.54166225e-003, 2.99294114e-001, 2.32218057e-002 ]
      - [ 2.88888887e-002, 4.19921577e-001, 1.53960073e-002,
          6.77685216e-002, 5.61254919e-001, 6.15800023e-001,
          5.86399972e-001, 1.00153521e-001, 2.90764514e-002,
          9.17387567e-003, 5.32549024e-001, 1.05052471e-001 ]
      - [ 1.77777782e-002, 5.36313713e-001, 9.93807986e-003,
          4.25068513e-002, 4.20862734e-001, 6.45799994e-001,
          5.93599975e-001, 2.80580260e-002, 1.93245951e-002,
          8.25590733e-003, 3.88705879e-001, 2.98232958e-002 ]
      - [ 2.53333338e-002, 5.74274480e-001, 5.51541056e-003,
          3.02984919e-002, 5.19686282e-001, 6.78399980e-001,
          6.30999982e-001, 2.52086595e-002, 1.40627166e-002,
          8.00000038e-003, 4.82509792e-001, 2.75909826e-002 ]
      - [ 4.66666669e-002, 4.22117651e-001, 3.87113422e-001,
          4.86856177e-002, 4.19294119e-001, 6.16400003e-001,
          5.57399988e-001, 2.38747634e-002, 1.11427102e-002,
          1.47295622e-002, 3.92627448e-001, 2.41227765e-002 ]
      - [ 1.66666675e-002, 5.57803929e-001, 7.69800367e-003,
          5.42464256e-002, 3.95294130e-001, 6.47800028e-001,
          5.94600022e-001, 3.98397185e-002, 1.62677597e-002,
          7.95989949e-003, 3.63294125e-001, 4.07554656e-002 ]
      - [ 1.97777785e-002, 6.40627444e-001, 1.88771207e-002,
          7.32877553e-002, 1.75686270e-001, 5.93999982e-001,
          5.63399971e-001, 3.51431705e-002, 2.01990101e-002,
          7.33212102e-003, 1.67372555e-001, 3.14740092e-002 ]
      - [ 2.06666663e-002, 4.34980392e-001, 4.98887664e-003,
          2.98731476e-002, 3.88392150e-001, 5.98399997e-001,
          5.62799990e-001, 3.89253609e-002, 4.66476148e-003,
          6.37495099e-003, 3.62039208e-001, 3.65082696e-002 ]
      - [ 1.66666675e-002, 5.61882377e-001, 1.17588947e-002,
          1.75370008e-001, 2.79686272e-001, 6.10400021e-001,
          5.70200026e-001, 1.37859955e-001, 1.09251998e-002,
          1.53570827e-002, 2.59607852e-001, 1.29842490e-001 ]
      - [ 1.66666675e-002, 5.74588239e-001, 6.28539361e-003,
          8.59709829e-002, 2.45960787e-001, 6.04799986e-001,
          5.67200005e-001, 5.68466857e-002, 5.27636241e-003,
          6.37495099e-003, 2.28392154e-001, 5.05548604e-002 ]
      - [ 2.02222224e-002, 4.50509816e-001, 2.17460077e-002,
          2.82869022e-002, 4.27294105e-001, 6.12399995e-001,
          5.72000027e-001, 2.60181129e-002, 2.08076909e-002,
          1.35646602e-002, 3.99843127e-001, 2.60181129e-002 ]
      - [ 1.98888883e-001, 5.19999981e-001, 7.95555532e-001,
          5.63418716e-002, 3.38666677e-001, 6.40200019e-001,
          5.63600004e-001, 5.79852685e-002, 5.27636241e-003,
          9.17387567e-003, 3.11215699e-001, 5.79852685e-002 ]
      - [ 1.31111108e-002, 4.77333337e-001, 1.17083909e-002,
          4.28693704e-002, 4.86274511e-001, 6.47000015e-001,
          5.85200012e-001, 3.81219462e-002, 2.20907219e-002,
          7.73563189e-003, 4.55058813e-001, 3.92426290e-002 ]
      - [ 1.86666660e-002, 4.08470601e-001, 6.94244402e-003,
          5.96216395e-002, 4.34666663e-001, 6.01400018e-001,
          5.61600029e-001, 6.28612787e-002, 9.17387567e-003,
          1.00876158e-002, 4.07215685e-001, 6.28612787e-002 ]
      - [ 1.77777782e-002, 5.44156849e-001, 7.69800367e-003,
          2.62836479e-002, 4.61803913e-001, 6.62599981e-001,
          6.03200018e-001, 2.78415214e-002, 7.54718482e-003,
          1.01508619e-002, 4.26980406e-001, 2.87219230e-002 ]
      - [ 8.22222233e-003, 5.61568618e-001, 9.49073583e-003,
          1.20222583e-001, 2.84235299e-001, 6.24400020e-001,
          5.68599999e-001, 1.05714224e-001, 1.79599561e-002,
          7.22218817e-003, 2.61803925e-001, 1.01724967e-001 ]
      - [ 2.55555548e-002, 4.45960790e-001, 1.44016463e-002,
          5.48031479e-002, 5.02431393e-001, 6.18600011e-001,
          5.84800005e-001, 5.63999414e-002, 2.82163080e-002,
          8.23650416e-003, 4.72470582e-001, 5.74369393e-002 ]
      - [ 2.18222216e-001, 3.37254912e-001, 7.68795907e-001,
          4.04574238e-002, 2.20392153e-001, 5.41999996e-001,
          5.27199984e-001, 4.89457324e-002, 1.16619039e-002,
          1.76816285e-002, 2.10352942e-001, 4.20728922e-002 ]
      - [ 1.04444444e-001, 5.54823518e-001, 5.22397161e-001,
          8.58555213e-002, 2.70274520e-001, 5.96199989e-001,
          5.70599973e-001, 3.90805081e-002, 2.06455812e-002,
          3.22886966e-002, 2.50980407e-001, 3.57726514e-002 ]
      - [ 1.06666666e-002, 5.57960808e-001, 1.25393206e-002,
          9.24590528e-002, 2.21333340e-001, 5.99399984e-001,
          5.55999994e-001, 6.56177253e-002, 1.86161213e-002,
          8.00000038e-003, 2.07843140e-001, 5.93431294e-002 ]
      - [ 2.99999993e-002, 6.59764707e-001, 5.44331037e-003,
          3.30543630e-002, 3.00392151e-001, 6.30999982e-001,
          6.06800020e-001, 2.49992255e-002, 1.44222053e-002,
          7.93977361e-003, 2.72313714e-001, 2.21683960e-002 ]
      - [ 1.09111108e-001, 5.33176482e-001, 5.20824432e-001,
          8.16617087e-002, 2.70274520e-001, 5.86600006e-001,
          5.67399979e-001, 2.06437409e-002, 1.48916086e-002,
          2.56312303e-002, 2.51137257e-001, 1.97297130e-002 ]
      - [ 3.35555561e-002, 5.14352918e-001, 1.15384487e-002,
          1.51863292e-001, 2.57254899e-001, 5.72399974e-001,
          5.60800016e-001, 1.29517391e-001, 1.02449991e-002,
          9.66643635e-003, 2.40784317e-001, 1.19933434e-001 ]
      - [ 4.11111116e-002, 3.93882364e-001, 1.47405546e-002,
          2.05656022e-001, 5.01490176e-001, 5.77000022e-001,
          5.74400008e-001, 2.69363344e-001, 3.14960331e-002,
          1.55743379e-002, 4.75137264e-001, 2.68435150e-001 ]
      - [ 5.71111105e-002, 3.78352940e-001, 3.80960703e-001,
          2.46113073e-002, 2.48156860e-001, 5.57600021e-001,
          5.34200013e-001, 2.70499662e-002, 1.36000002e-002,
          1.04613574e-002, 2.34196082e-001, 2.30932944e-002 ]
      - [ 4.08888906e-002, 7.06980407e-001, 1.20077342e-001,
          1.30119532e-001, 1.86196074e-001, 5.69199979e-001,
          5.83999991e-001, 2.84304261e-001, 2.04032943e-001,
          1.35499075e-001, 1.68470591e-001, 1.72747791e-001 ]
      - [ 1.46666663e-002, 5.82117677e-001, 1.25235580e-002,
          6.75544664e-002, 1.84470594e-001, 5.88000000e-001,
          5.53799987e-001, 2.57305671e-002, 1.05830049e-002,
          9.91160981e-003, 1.75529405e-001, 2.30675060e-002 ]
      - [ 1.20222226e-001, 5.14980376e-001, 6.45668387e-001,
          4.20634598e-002, 4.65254903e-001, 6.78399980e-001,
          5.85200012e-001, 3.26466970e-002, 1.82690993e-002,
          9.15641896e-003, 4.31215674e-001, 3.47514488e-002 ]
      - [ 1.68888886e-002, 6.24156892e-001, 1.23648243e-002,
          1.02753460e-001, 1.86039209e-001, 5.95799983e-001,
          5.62799990e-001, 2.89592557e-002, 1.73620284e-002,
          1.32905981e-002, 1.75686270e-001, 2.79055834e-002 ]
      - [ 1.24444440e-002, 5.53568602e-001, 5.69166616e-003,
          3.72453444e-002, 4.17098045e-001, 6.59200013e-001,
          5.95600009e-001, 2.90276855e-002, 8.79999995e-003,
          8.63481313e-003, 3.82745087e-001, 2.95459256e-002 ]
      - [ 1.20222226e-001, 5.14980376e-001, 6.45668387e-001,
          4.20634598e-002, 4.65254903e-001, 6.78399980e-001,
          5.85200012e-001, 3.26466970e-002, 1.82690993e-002,
          9.15641896e-003, 4.31215674e-001, 3.47514488e-002 ]
      - [ 1.02222227e-002, 5.11529386e-001, 8.12251866e-003,
          3.14235389e-002, 4.65568632e-001, 6.60799980e-001,
          5.91199994e-001, 2.26596612e-002, 1.80399548e-002,
          8.13879631e-003, 4.32784319e-001, 2.41802800e-002 ]
      - [ 5.18222213e-001, 3.19215685e-001, 9.84243870e-001,
          2.88666189e-002, 5.69254875e-001, 6.10199988e-001,
          5.41999996e-001, 2.94349212e-002, 1.61195528e-002,
          1.16619039e-002, 5.44470608e-001, 2.95190532e-002 ]
      - [ 2.05555558e-001, 4.54117656e-001, 7.87990093e-001,
          1.16301104e-001, 4.29019600e-001, 6.29800022e-001,
          5.64400017e-001, 8.35981667e-002, 1.73158888e-002,
          3.25355195e-002, 4.00784314e-001, 8.59963670e-002 ]
      - [ 7.44444430e-001, 6.84549034e-001, 8.31675410e-001,
          1.81082919e-001, 7.93725476e-002, 5.71600020e-001,
          5.22400022e-001, 5.51082119e-002, 1.25602549e-002,
          1.57784671e-002, 8.92549008e-002, 4.62509803e-002 ]
      - [ 9.73111093e-001, 2.70117640e-001, 1.20410817e-002,
          1.99550867e-001, 6.94274485e-001, 6.06800020e-001,
          5.17000020e-001, 3.05125833e-001, 5.26026599e-002,
          1.20000001e-002, 6.78274512e-001, 3.19832236e-001 ]
      - [ 2.22222228e-002, 5.89333355e-001, 1.08866207e-002,
          7.85357952e-002, 4.86117661e-001, 6.80800021e-001,
          6.28000021e-001, 9.73702222e-002, 2.86607742e-002,
          1.46969389e-002, 4.47686285e-001, 1.04855873e-001 ]
      - [ 2.93333326e-002, 3.42588246e-001, 1.15555553e-002,
          2.16818765e-001, 5.25333345e-001, 5.74199975e-001,
          5.55800021e-001, 3.76364648e-001, 1.64146274e-002,
          1.34699661e-002, 5.03215671e-001, 3.80950838e-001 ]
      - [ 2.42222231e-002, 6.02980375e-001, 8.82197078e-003,
          9.19685066e-002, 5.41490197e-001, 6.99000001e-001,
          6.47400022e-001, 9.43810418e-002, 3.23728286e-002,
          1.49986669e-002, 5.00078440e-001, 1.05596863e-001 ]
      - [ 3.11111100e-003, 5.08078456e-001, 6.34793658e-003,
          3.68032530e-002, 4.74666655e-001, 6.74600005e-001,
          5.86799979e-001, 2.35147160e-002, 1.91666372e-002,
          9.32952296e-003, 4.40627456e-001, 2.56726723e-002 ]
      - [ 9.52666640e-001, 3.11843127e-001, 2.37518027e-002,
          7.38016665e-002, 3.30039203e-001, 5.74800014e-001,
          5.00199974e-001, 3.70450467e-002, 1.88637227e-002,
          1.31087760e-002, 3.10901970e-001, 3.43234837e-002 ]
      - [ 6.22222200e-003, 4.93960798e-001, 6.53197244e-003,
          1.93489417e-002, 3.96392167e-001, 6.38400018e-001,
          5.73000014e-001, 1.17679005e-002, 6.14491664e-003,
          7.48331472e-003, 3.67058814e-001, 1.04460623e-002 ]
      - [ 1.42222224e-002, 4.73882347e-001, 1.13659659e-002,
          4.67522964e-002, 3.96235287e-001, 6.20199978e-001,
          5.70599973e-001, 1.65885910e-002, 1.39942849e-002,
          1.39484769e-002, 3.68627459e-001, 1.69611499e-002 ]
      - [ 1.48888892e-002, 6.04862750e-001, 1.02896327e-002,
          2.56739080e-001, 2.85176456e-001, 6.24199986e-001,
          5.78400016e-001, 1.68886453e-001, 1.75909065e-002,
          2.69399323e-002, 2.62117654e-001, 1.63000569e-001 ]
      - [ 4.42222208e-002, 3.87137264e-001, 1.01737985e-002,
          2.95056086e-002, 5.96705854e-001, 5.88000000e-001,
          5.91199994e-001, 3.36049870e-002, 1.16619039e-002,
          1.06883114e-002, 5.68627477e-001, 3.47885378e-002 ]
      - [ 9.86444473e-001, 5.78196049e-001, 6.34793658e-003,
          6.14003614e-002, 3.14666659e-001, 6.55799985e-001,
          5.59199989e-001, 5.79167977e-002, 8.33306648e-003,
          6.74091978e-003, 2.87215680e-001, 5.79167977e-002 ]
      - [ 2.55555548e-002, 6.01254880e-001, 7.02728378e-003,
          4.99349199e-002, 1.99529409e-001, 5.87599993e-001,
          5.63199997e-001, 3.62765752e-002, 1.17029911e-002,
          6.24819985e-003, 1.88862741e-001, 3.22492607e-002 ]
      - [ 5.18222213e-001, 5.31764686e-001, 9.84263957e-001,
          8.00210759e-002, 4.28862751e-001, 6.72599971e-001,
          5.78999996e-001, 4.55267951e-002, 4.06073891e-002,
          8.00000038e-003, 3.94823521e-001, 4.86774668e-002 ]
      - [ 3.20000015e-002, 3.67686272e-001, 2.70855986e-002,
          3.93562168e-002, 2.67921567e-001, 5.49799979e-001,
          5.39799988e-001, 1.66244321e-002, 1.48270028e-002,
          1.34104434e-002, 2.51921564e-001, 1.46515947e-002 ]
      - [ 1.22222221e-002, 4.98666674e-001, 1.17588947e-002,
          6.67642280e-002, 2.84862757e-001, 6.01800025e-001,
          5.56200027e-001, 5.98375462e-002, 2.29573511e-002,
          9.06862691e-003, 2.64784306e-001, 5.50559834e-002 ]
      - [ 1.65999994e-001, 6.16941154e-001, 7.23198116e-001,
          1.25446096e-001, 2.71058828e-001, 6.38999999e-001,
          5.76799989e-001, 9.20504406e-002, 2.29782499e-002,
          1.26111060e-002, 2.46588230e-001, 9.02547687e-002 ]
      - [ 1.71111114e-002, 5.95921576e-001, 1.29271466e-002,
          4.99229990e-002, 3.22980404e-001, 6.38999999e-001,
          5.89399993e-001, 4.11189534e-002, 1.26491105e-002,
          9.92773846e-003, 2.94745088e-001, 4.04378064e-002 ]
      - [ 1.60000008e-002, 4.24470574e-001, 1.94542836e-002,
          1.10848248e-001, 5.05568624e-001, 6.23600006e-001,
          5.72600007e-001, 1.76306516e-001, 3.34089808e-002,
          1.06282644e-002, 4.78745103e-001, 1.80422142e-001 ]
      - [ 3.17777768e-002, 5.94980419e-001, 8.02465342e-003,
          7.17363879e-002, 1.48862749e-001, 5.63000023e-001,
          5.51999986e-001, 3.37375626e-002, 1.05830049e-002,
          9.79795866e-003, 1.47607848e-001, 2.92828698e-002 ]
      - [ 7.92666674e-001, 5.51529408e-001, 7.92687058e-001,
          8.37428123e-002, 3.33019614e-001, 6.50799990e-001,
          5.62600017e-001, 6.50803447e-002, 1.59197990e-002,
          8.54166225e-003, 3.05098027e-001, 6.57279864e-002 ]
      - [ 4.66666669e-002, 4.81254905e-001, 6.28539361e-003,
          4.31576520e-002, 1.83372542e-001, 5.44200003e-001,
          5.47599971e-001, 2.29597446e-002, 1.00717423e-002,
          5.74108027e-003, 1.77411765e-001, 2.06869449e-002 ]
      - [ 1.93333328e-002, 5.58274508e-001, 7.11111119e-003,
          3.88232879e-002, 4.25882339e-001, 6.52599990e-001,
          6.02599978e-001, 3.36285941e-002, 1.02449991e-002,
          1.02449991e-002, 3.92784327e-001, 3.29340994e-002 ]
      - [ 1.48888892e-002, 4.85176474e-001, 1.24603072e-002,
          5.17782234e-002, 4.76549029e-001, 6.45799994e-001,
          5.86199999e-001, 4.15533222e-002, 2.89385561e-002,
          4.27083112e-003, 4.44705874e-001, 4.24905121e-002 ]
      - [ 1.26666669e-002, 5.47607839e-001, 1.01931952e-002,
          4.64969799e-002, 1.92470595e-001, 5.84999979e-001,
          5.50000012e-001, 1.31606823e-002, 1.09544508e-002,
          9.38083138e-003, 1.83058828e-001, 1.06156217e-002 ]
      - [ 1.73333324e-002, 5.41960776e-001, 8.50272272e-003,
          2.97133271e-002, 4.55843151e-001, 6.58800006e-001,
          6.02199972e-001, 2.09253356e-002, 7.63151376e-003,
          1.02293696e-002, 4.21490192e-001, 2.12592594e-002 ]
      - [ 2.35555563e-002, 4.23215687e-001, 8.47945921e-003,
          3.89533862e-002, 2.61019617e-001, 5.63799977e-001,
          5.44399977e-001, 2.16017999e-002, 5.12249954e-003,
          6.52380241e-003, 2.45960787e-001, 1.99844930e-002 ]
      - [ 1.77777782e-002, 4.76392150e-001, 4.44444455e-003,
          6.04658797e-002, 4.85019594e-001, 6.38999999e-001,
          5.86600006e-001, 4.92347032e-002, 1.26491105e-002,
          1.15654655e-002, 4.54431385e-001, 5.09963967e-002 ]
      - [ 1.53333331e-002, 4.12862748e-001, 1.26803042e-002,
          2.20815480e-001, 4.26039219e-001, 5.98800004e-001,
          5.57200015e-001, 2.42753550e-001, 3.14044580e-002,
          1.55125754e-002, 4.01098043e-001, 2.39220008e-001 ]
      - [ 8.14888895e-001, 3.25176477e-001, 7.04502046e-001,
          7.38285482e-002, 3.20941180e-001, 5.73000014e-001,
          5.12600005e-001, 2.34301928e-002, 2.38327514e-002,
          1.98232196e-002, 3.01647067e-001, 2.00340711e-002 ]
      - [ 3.58444452e-001, 5.36313713e-001, 9.49407220e-001,
          5.91036007e-002, 3.09490204e-001, 6.34999990e-001,
          5.61399996e-001, 3.11731473e-002, 1.32664992e-002,
          1.48377893e-002, 2.85176456e-001, 3.23904492e-002 ]
      - [ 1.60000008e-002, 4.60392147e-001, 2.06845794e-002,
          5.80758713e-002, 5.17019629e-001, 6.42799973e-001,
          5.85600019e-001, 5.92460968e-002, 4.08000015e-002,
          5.87877538e-003, 4.86431360e-001, 6.22587241e-002 ]
      - [ 2.00222224e-001, 5.45254886e-001, 7.84236550e-001,
          9.03141052e-002, 3.30509812e-001, 6.42799973e-001,
          5.66799998e-001, 7.20468536e-002, 1.69894081e-002,
          1.16206715e-002, 3.03529412e-001, 7.04273358e-002 ]
      - [ 2.80000009e-002, 6.55843139e-001, 1.19587770e-002,
          4.54395525e-002, 1.74588233e-001, 5.88800013e-001,
          5.67200005e-001, 2.04263572e-002, 1.44996550e-002,
          4.96386923e-003, 1.66745096e-001, 1.81095507e-002 ]
      - [ 3.17777768e-002, 4.54431385e-001, 1.06666666e-002,
          3.65490057e-002, 5.41019619e-001, 6.20999992e-001,
          5.96800029e-001, 4.39525284e-002, 1.87616628e-002,
          7.41889467e-003, 5.10431349e-001, 4.45243381e-002 ]
      - [ 1.88888889e-002, 5.10588229e-001, 1.21716121e-002,
          5.08834459e-002, 4.84235287e-001, 6.51000023e-001,
          5.98599970e-001, 4.86978441e-002, 2.51396094e-002,
          8.25590733e-003, 4.51450974e-001, 5.18643670e-002 ]
      - [ 1.24444440e-002, 4.71215695e-001, 1.26803042e-002,
          6.49567619e-002, 4.84078437e-001, 6.43400013e-001,
          5.82199991e-001, 3.11858747e-002, 1.43443365e-002,
          2.26415545e-002, 4.53803927e-001, 3.31472680e-002 ]
      - [ 1.20000001e-002, 4.52549011e-001, 8.12251866e-003,
          1.09491296e-001, 4.25254911e-001, 6.22200012e-001,
          5.67600012e-001, 1.05431393e-001, 2.11811233e-002,
          1.26870014e-002, 3.97803932e-001, 1.05431393e-001 ]
      - [ 2.31111106e-002, 6.69490218e-001, 1.07404850e-002,
          2.94227183e-001, 2.52705872e-001, 6.16999984e-001,
          5.85200012e-001, 1.68644875e-001, 1.78885441e-002,
          1.63658187e-002, 2.32470587e-001, 1.59926206e-001 ]
      - [ 9.01555538e-001, 3.61568630e-001, 5.30311048e-001,
          4.43188883e-002, 2.26352945e-001, 5.63600004e-001,
          5.15799999e-001, 2.15374120e-002, 1.28124943e-002,
          8.33306648e-003, 2.16627449e-001, 1.89343467e-002 ]
      - [ 2.82222219e-002, 6.05490208e-001, 5.37024252e-003,
          3.61176208e-002, 5.26274502e-001, 6.88600004e-001,
          6.47800028e-001, 4.88950387e-002, 1.28124943e-002,
          9.83056426e-003, 4.85647053e-001, 5.16900197e-002 ]
      - [ 2.88888887e-002, 4.11294132e-001, 9.93807986e-003,
          2.33920570e-002, 5.70039213e-001, 6.14000022e-001,
          5.85600019e-001, 2.95358524e-002, 1.83303021e-002,
          7.11055566e-003, 5.42117655e-001, 3.08822077e-002 ]
      - [ 4.74888891e-001, 5.18274486e-001, 9.88562346e-001,
          6.76864982e-002, 3.43058825e-001, 6.41600013e-001,
          5.59400022e-001, 5.66981621e-002, 9.68297478e-003,
          5.87877538e-003, 3.16078424e-001, 5.64298369e-002 ]
      - [ 1.11111114e-002, 5.04784286e-001, 9.93807986e-003,
          4.45154272e-002, 3.81019622e-001, 6.32200003e-001,
          5.73599994e-001, 3.04291751e-002, 2.22854204e-002,
          6.01331843e-003, 3.53411764e-001, 3.03181298e-002 ]
      - [ 2.75555551e-002, 5.88078439e-001, 7.35686440e-003,
          1.20397381e-001, 3.26431364e-001, 6.18600011e-001,
          5.91400027e-001, 1.17516197e-001, 9.17387567e-003,
          1.28124943e-002, 3.00705880e-001, 1.15094736e-001 ]
      - [ 4.88888882e-002, 4.02509809e-001, 3.83962452e-001,
          5.69495521e-002, 4.29803908e-001, 6.08600020e-001,
          5.55199981e-001, 2.66323388e-002, 1.68570466e-002,
          1.63658187e-002, 4.02823538e-001, 2.70499662e-002 ]
      - [ 2.02222224e-002, 5.10274529e-001, 8.24321620e-003,
          8.58324096e-002, 4.60862756e-001, 6.41600013e-001,
          5.93800008e-001, 8.52176622e-002, 2.36169435e-002,
          1.27373468e-002, 4.29019600e-001, 8.77661407e-002 ]
      - [ 3.75555567e-002, 7.37568617e-001, 4.74536791e-003,
          6.39269203e-002, 3.25333327e-001, 6.48999989e-001,
          6.40600026e-001, 3.18468660e-002, 1.81107707e-002,
          1.33626349e-002, 2.89098024e-001, 3.37405019e-002 ]
      - [ 3.31111103e-002, 6.74352944e-001, 5.86262485e-003,
          2.95022465e-002, 2.78901964e-001, 6.21800005e-001,
          6.04399979e-001, 2.55215298e-002, 1.38217220e-002,
          4.30813199e-003, 2.52862751e-001, 2.32644863e-002 ]
      - [ 1.77777782e-002, 5.44156849e-001, 7.69800367e-003,
          2.62836479e-002, 4.61803913e-001, 6.62599981e-001,
          6.03200018e-001, 2.78415214e-002, 7.54718482e-003,
          1.01508619e-002, 4.26980406e-001, 2.87219230e-002 ]
      - [ 4.53333333e-002, 5.98274529e-001, 1.39416773e-002,
          6.66675791e-002, 2.78274506e-001, 5.83800018e-001,
          5.90200007e-001, 3.29942852e-002, 6.49923086e-003,
          2.48965863e-002, 2.57568628e-001, 2.84093786e-002 ]
      - [ 3.56888890e-001, 5.27686298e-001, 9.48023438e-001,
          7.67651498e-002, 3.51999998e-001, 6.47400022e-001,
          5.64000010e-001, 6.80373311e-002, 1.49986669e-002,
          1.01980390e-002, 3.23607832e-001, 6.70030192e-002 ]
      - [ 2.51111109e-002, 5.89019597e-001, 6.37897803e-003,
          2.75478046e-002, 2.97882348e-001, 6.16599977e-001,
          5.84999979e-001, 1.92203410e-002, 1.25602549e-002,
          2.82842712e-003, 2.74039209e-001, 1.74398348e-002 ]
      - [ 9.87555563e-001, 8.03921580e-001, 4.74536791e-003,
          4.55877632e-002, 1.56392157e-001, 6.45200014e-001,
          5.71600020e-001, 3.46685685e-002, 1.53570827e-002,
          7.85875320e-003, 1.35843143e-001, 2.88563073e-002 ]
      - [ 4.91111130e-002, 5.93725502e-001, 1.17239021e-001,
          2.15328053e-001, 4.64313716e-001, 6.11000001e-001,
          6.32200003e-001, 2.32730120e-001, 2.23857090e-001,
          1.15761131e-001, 4.20549005e-001, 1.77209511e-001 ]
      - [ 9.11555529e-001, 6.31372571e-001, 5.37630081e-001,
          8.79637152e-002, 2.85960793e-001, 6.62400007e-001,
          5.72799981e-001, 5.54062203e-002, 1.29984617e-002,
          9.41488147e-003, 2.56313711e-001, 5.61160520e-002 ]
      - [ 2.04444453e-002, 5.79294145e-001, 5.18306857e-003,
          5.85657395e-002, 4.39058810e-001, 6.63600028e-001,
          6.12600029e-001, 5.12950867e-002, 1.45657128e-002,
          9.84682702e-003, 4.03450966e-001, 5.40191904e-002 ]
      - [ 4.17777784e-002, 5.24392128e-001, 3.88960242e-001,
          2.84791291e-002, 3.39764714e-001, 6.40600026e-001,
          5.66600025e-001, 2.45871115e-002, 9.51630156e-003,
          6.76461402e-003, 3.12627465e-001, 2.42458321e-002 ]
      - [ 9.58666682e-001, 8.51137280e-001, 2.55334795e-001,
          9.35247466e-002, 2.26196080e-001, 6.55600011e-001,
          6.08200014e-001, 2.68315405e-001, 2.39170566e-001,
          1.25630572e-001, 1.76627457e-001, 1.70769662e-001 ]
      - [ 3.60666662e-001, 3.85725498e-001, 9.44206059e-001,
          1.50852660e-002, 2.81725496e-001, 5.77000022e-001,
          5.32400012e-001, 1.55387670e-002, 5.65685425e-003,
          9.43186134e-003, 2.65725493e-001, 1.43090608e-002 ]
      - [ 1.15555553e-002, 4.38117653e-001, 1.74752027e-002,
          5.37983738e-002, 4.60549027e-001, 6.25800014e-001,
          5.68400025e-001, 4.34759781e-002, 1.04613574e-002,
          1.89145450e-002, 4.32156861e-001, 4.47088815e-002 ]
      - [ 1.11111114e-003, 3.96705896e-001, 5.44331037e-003,
          7.50201568e-002, 4.69019622e-001, 6.21999979e-001,
          5.54600000e-001, 1.11688964e-001, 9.38083138e-003,
          8.90842266e-003, 4.42039222e-001, 1.13353454e-001 ]
      - [ 9.83555555e-001, 5.37254930e-001, 1.15384487e-002,
          1.20428689e-001, 2.60392159e-001, 6.20599985e-001,
          5.38800001e-001, 8.93900245e-002, 2.16000006e-002,
          8.61626398e-003, 2.42980391e-001, 8.42035338e-002 ]
      - [ 4.77777779e-001, 5.12784302e-001, 9.91026402e-001,
          1.08679220e-001, 5.35215676e-001, 6.99800014e-001,
          5.89999974e-001, 1.28847778e-001, 2.21774653e-002,
          1.26491105e-002, 5.00078440e-001, 1.38387844e-001 ]
      - [ 2.43555561e-001, 3.14196080e-001, 8.39839399e-001,
          3.86594124e-002, 6.15215659e-001, 6.10599995e-001,
          5.47800004e-001, 7.05441535e-002, 1.36586968e-002,
          1.62677597e-002, 5.91686249e-001, 7.32010752e-002 ]
      - [ 2.77777780e-002, 5.11215687e-001, 1.40545676e-002,
          7.40954503e-002, 4.73098040e-001, 6.32799983e-001,
          6.00600004e-001, 9.44325328e-002, 2.31654923e-002,
          9.08625312e-003, 4.42039222e-001, 9.52598378e-002 ]
      - [ 3.17777768e-002, 5.53411782e-001, 5.89622185e-003,
          2.33920570e-002, 4.40784305e-001, 6.35200024e-001,
          6.10000014e-001, 2.77272705e-002, 1.34104434e-002,
          2.82842712e-003, 4.08470601e-001, 2.65091341e-002 ]
      - [ 2.83555567e-001, 5.04941165e-001, 8.86644304e-001,
          4.78843749e-002, 3.16078424e-001, 6.21599972e-001,
          5.59800029e-001, 3.66628245e-002, 1.19063007e-002,
          7.19999988e-003, 2.92549014e-001, 3.58419120e-002 ]
      - [ 4.53333333e-002, 5.98274529e-001, 1.39416773e-002,
          6.66675791e-002, 2.78274506e-001, 5.83800018e-001,
          5.90200007e-001, 3.29942852e-002, 6.49923086e-003,
          2.48965863e-002, 2.57568628e-001, 2.84093786e-002 ]
      - [ 1.33333337e-002, 4.95058835e-001, 1.29576707e-002,
          5.92293479e-002, 3.25333327e-001, 6.09799981e-001,
          5.64000010e-001, 3.73650044e-002, 7.73563189e-003,
          1.91833265e-002, 3.01960796e-001, 3.50725316e-002 ]
      - [ 5.55555560e-002, 6.18980408e-001, 8.31479393e-003,
          6.99212626e-002, 3.15450966e-001, 5.85399985e-001,
          6.07999980e-001, 4.29595225e-002, 6.88186008e-003,
          1.29614817e-002, 2.89254904e-001, 3.96700390e-002 ]
      - [ 4.75777775e-001, 3.54039222e-001, 9.81598020e-001,
          5.26333041e-002, 5.71294129e-001, 6.26399994e-001,
          5.46800017e-001, 5.88276982e-002, 2.45796666e-002,
          1.74080450e-002, 5.46666682e-001, 6.12758324e-002 ]
      - [ 3.22444439e-001, 4.17725503e-001, 9.14457142e-001,
          6.07114695e-002, 4.37803924e-001, 6.21200025e-001,
          5.54400027e-001, 6.31054118e-002, 2.56561879e-002,
          1.30598620e-002, 4.10509795e-001, 6.27443939e-002 ]
      - [ 2.26666667e-002, 6.97568655e-001, 1.98562741e-002,
          1.46436706e-001, 1.66901961e-001, 5.97199976e-001,
          5.69599986e-001, 7.63440132e-002, 2.04117615e-002,
          1.01666125e-002, 1.57333329e-001, 6.97308928e-002 ]
      - [ 2.82000005e-001, 4.27921563e-001, 8.84674907e-001,
          4.69977818e-002, 4.17882353e-001, 6.21599972e-001,
          5.54199994e-001, 5.64333498e-002, 1.93328727e-002,
          1.00717423e-002, 3.91058832e-001, 5.50289489e-002 ]
      - [ 2.26666667e-002, 4.51607853e-001, 5.37024252e-003,
          3.57504599e-002, 5.04627466e-001, 6.29400015e-001,
          5.83599985e-001, 4.41911221e-002, 9.92773846e-003,
          6.01331843e-003, 4.75137264e-001, 4.74891290e-002 ]
      - [ 2.55555548e-002, 4.73098040e-001, 1.21716121e-002,
          2.01525576e-002, 5.18588245e-001, 6.32200003e-001,
          5.95600009e-001, 2.54202690e-002, 1.94072146e-002,
          7.11055566e-003, 4.87372547e-001, 2.52479799e-002 ]
      - [ 1.08888885e-002, 6.00470603e-001, 9.67624038e-003,
          7.08948299e-002, 2.80941188e-001, 6.31399989e-001,
          5.78599989e-001, 5.63805923e-002, 1.48377893e-002,
          6.01331843e-003, 2.56470591e-001, 5.47343232e-002 ]
      - [ 1.34000003e-001, 4.88941163e-001, 6.35814428e-001,
          1.88608561e-002, 3.97647053e-001, 6.26999974e-001,
          5.72000027e-001, 3.73331308e-002, 2.65329983e-002,
          1.95959173e-002, 3.69725496e-001, 3.62902433e-002 ]
      - [ 6.00000005e-003, 4.92078424e-001, 3.01436894e-003,
          2.29424555e-002, 4.09098029e-001, 6.43000007e-001,
          5.72799981e-001, 2.09774189e-002, 9.79795866e-003,
          4.96386923e-003, 3.80705893e-001, 2.14682110e-002 ]
      - [ 1.44444443e-002, 5.78980386e-001, 1.04231462e-002,
          8.79039243e-002, 2.64627457e-001, 6.15199983e-001,
          5.70800006e-001, 8.00557807e-002, 1.37054734e-002,
          8.33306648e-003, 2.44392157e-001, 7.64945969e-002 ]
      - [ 1.19555555e-001, 5.63450992e-001, 6.46151900e-001,
          1.87245622e-001, 3.01803917e-001, 6.38599992e-001,
          5.65400004e-001, 1.61530286e-001, 1.92914493e-002,
          1.69516969e-002, 2.77490199e-001, 1.58270150e-001 ]
      - [ 1.97777785e-002, 6.30117655e-001, 1.09228492e-002,
          7.62022510e-002, 2.46901959e-001, 6.16800010e-001,
          5.80399990e-001, 5.32870181e-002, 1.71767287e-002,
          7.44043011e-003, 2.26666674e-001, 5.06391674e-002 ]
      - [ 9.49111104e-001, 6.80000007e-001, 3.87491852e-001,
          5.40044978e-002, 2.61647046e-001, 6.68600023e-001,
          5.76200008e-001, 3.01705319e-002, 1.61294769e-002,
          1.03072794e-002, 2.30274513e-001, 2.85660792e-002 ]
      - [ 8.00000038e-003, 5.02431393e-001, 6.34793658e-003,
          7.95024484e-002, 2.97411770e-001, 6.11000001e-001,
          5.58000028e-001, 6.03657179e-002, 1.09544508e-002,
          1.05830049e-002, 2.75921583e-001, 5.67750931e-002 ]
      - [ 2.77777780e-002, 5.11215687e-001, 1.40545676e-002,
          7.40954503e-002, 4.73098040e-001, 6.32799983e-001,
          6.00600004e-001, 9.44325328e-002, 2.31654923e-002,
          9.08625312e-003, 4.42039222e-001, 9.52598378e-002 ]
      - [ 7.13777781e-001, 5.58901966e-001, 8.90255153e-001,
          5.97645566e-002, 3.13882351e-001, 6.46799982e-001,
          5.62399983e-001, 4.47909012e-002, 1.12712020e-002,
          9.43186134e-003, 2.86431372e-001, 4.47909012e-002 ]
      - [ 1.88888889e-002, 5.96862733e-001, 1.25707872e-002,
          1.88753143e-001, 2.66980380e-001, 6.11599982e-001,
          5.75200021e-001, 1.61889762e-001, 1.95386801e-002,
          1.39942849e-002, 2.46431366e-001, 1.55717373e-001 ]
      - [ 2.81333327e-001, 6.08313739e-001, 8.89438033e-001,
          1.27594441e-001, 3.25960785e-001, 6.63200021e-001,
          5.84999979e-001, 1.35585338e-001, 2.03725304e-002,
          1.29614817e-002, 2.93647051e-001, 1.36805356e-001 ]
      - [ 2.44444441e-002, 4.21803921e-001, 1.25707872e-002,
          5.88850044e-002, 5.11686265e-001, 6.14000022e-001,
          5.78000009e-001, 4.77723740e-002, 2.88444106e-002,
          6.92820316e-003, 4.83137250e-001, 4.98494245e-002 ]
      - [ 4.00444448e-001, 4.97098029e-001, 9.64582264e-001,
          4.74682339e-002, 3.26431364e-001, 6.24000013e-001,
          5.56599975e-001, 3.65462936e-002, 1.60000008e-002,
          1.12142768e-002, 3.02745104e-001, 3.59800309e-002 ]
      - [ 6.00000005e-003, 5.77254891e-001, 7.64651131e-003,
          1.10931441e-001, 2.54117638e-001, 6.22600019e-001,
          5.64800024e-001, 6.35018721e-002, 2.38528829e-002,
          1.18253967e-002, 2.34039217e-001, 6.09804764e-002 ]
      - [ 2.33333334e-002, 6.40313745e-001, 1.33333337e-002,
          7.54105449e-002, 2.88941175e-001, 6.31600022e-001,
          5.95000029e-001, 6.26257062e-002, 2.13016439e-002,
          8.00000038e-003, 2.62117654e-001, 6.13033473e-002 ]
      - [ 3.66666652e-002, 5.87137282e-001, 9.93807986e-003,
          6.83733001e-002, 4.69647050e-001, 6.46000028e-001,
          6.30400002e-001, 5.20057119e-002, 1.67332012e-002,
          1.74172334e-002, 4.34509814e-001, 5.40962629e-002 ]
      - [ 2.60000005e-002, 4.39372540e-001, 5.18306857e-003,
          2.73199975e-002, 7.45098054e-001, 6.65000021e-001,
          6.17999971e-001, 2.40898561e-002, 1.44222053e-002,
          5.65685425e-003, 7.24862754e-001, 2.90959533e-002 ]
      - [ 2.80000009e-002, 5.19058824e-001, 9.67624038e-003,
          3.42047811e-002, 4.11607832e-001, 6.21999979e-001,
          5.92400014e-001, 4.86142524e-002, 1.20000001e-002,
          8.54166225e-003, 3.81176472e-001, 4.57506739e-002 ]
      - [ 4.06888902e-001, 3.89647067e-001, 9.50613976e-001,
          6.21949546e-002, 5.65176487e-001, 6.29400015e-001,
          5.64000010e-001, 6.54754564e-002, 2.71764603e-002,
          3.59999985e-002, 5.38823545e-001, 6.72940463e-002 ]
      - [ 1.24444440e-002, 5.44784307e-001, 7.22136768e-003,
          6.54224083e-002, 4.82039213e-001, 6.77399993e-001,
          6.05000019e-001, 6.21167533e-002, 2.65510827e-002,
          1.81107707e-002, 4.46117640e-001, 6.50940612e-002 ]
      - [ 2.88888887e-002, 3.39450985e-001, 3.12694386e-002,
          2.15524688e-001, 6.90823555e-001, 6.03999972e-001,
          5.74000001e-001, 3.07902664e-001, 7.61051923e-002,
          2.82842703e-002, 6.71372533e-001, 3.28133970e-001 ]
      - [ 1.37777776e-002, 4.78431374e-001, 6.37897803e-003,
          3.68651971e-002, 3.33019614e-001, 6.05799973e-001,
          5.62200010e-001, 2.38747634e-002, 1.56665239e-002,
          1.02293696e-002, 3.09960783e-001, 2.21011713e-002 ]
      - [ 2.33333334e-002, 4.31843132e-001, 9.93807986e-003,
          1.66681141e-001, 5.91215670e-001, 6.30599976e-001,
          5.89999974e-001, 2.36506701e-001, 3.54761891e-002,
          2.74226181e-002, 5.64862728e-001, 2.50720143e-001 ]
      - [ 4.93333340e-002, 4.91607845e-001, 3.85929316e-001,
          7.09144175e-002, 4.61490184e-001, 6.51400030e-001,
          5.83199978e-001, 5.64614683e-002, 1.75544862e-002,
          1.99759863e-002, 4.30274516e-001, 5.91556095e-002 ]
      - [ 2.68888883e-002, 6.27451003e-001, 1.20410817e-002,
          1.05570555e-001, 2.72000015e-001, 6.15400016e-001,
          5.88999987e-001, 5.40448949e-002, 1.69516969e-002,
          1.52315460e-002, 2.48941183e-001, 5.20457551e-002 ]
      - [ 1.48888892e-002, 4.52078432e-001, 7.51623744e-003,
          3.31472680e-002, 4.94117647e-001, 6.34599984e-001,
          5.78999996e-001, 2.18211133e-002, 1.26237869e-002,
          8.48528091e-003, 4.64313716e-001, 2.34640390e-002 ]
      - [ 4.24444452e-002, 3.97176474e-001, 1.17083909e-002,
          2.31806740e-001, 5.01960814e-001, 5.75200021e-001,
          5.75200021e-001, 2.99577057e-001, 2.19963640e-002,
          1.96936540e-002, 4.77176458e-001, 2.97956079e-001 ]
      - [ 2.95555554e-002, 5.94666660e-001, 7.51623744e-003,
          7.92700276e-002, 4.88470584e-001, 6.67599976e-001,
          6.34599984e-001, 7.11657703e-002, 2.53171884e-002,
          1.43999998e-002, 4.51137245e-001, 7.64543787e-002 ]
      - [ 1.73333324e-002, 6.76862717e-001, 4.78681317e-003,
          1.81847155e-001, 1.93098038e-001, 6.08600020e-001,
          5.72399974e-001, 1.26441687e-001, 1.00079970e-002,
          1.23677002e-002, 1.80549026e-001, 1.16161987e-001 ]
      - [ 2.11111102e-002, 5.95137239e-001, 7.02728378e-003,
          8.82811695e-002, 3.18901956e-001, 6.30800009e-001,
          5.88999987e-001, 9.34780687e-002, 1.28623480e-002,
          7.48331472e-003, 2.91921556e-001, 9.21785980e-002 ]
      - [ 1.26666669e-002, 4.90509808e-001, 6.68146508e-003,
          4.04525213e-002, 3.22666675e-001, 6.08600020e-001,
          5.62399983e-001, 2.37288922e-002, 6.64529903e-003,
          8.54166225e-003, 2.99294114e-001, 2.32218057e-002 ]
      - [ 9.31999981e-001, 4.06745106e-001, 3.81281525e-001,
          7.38486946e-002, 2.03294113e-001, 5.70400000e-001,
          5.11399984e-001, 2.17847135e-002, 1.80930924e-002,
          1.11427102e-002, 1.96235299e-001, 1.88292731e-002 ]
      - [ 1.88888889e-002, 5.10588229e-001, 1.21716121e-002,
          5.08834459e-002, 4.84235287e-001, 6.51000023e-001,
          5.98599970e-001, 4.86978441e-002, 2.51396094e-002,
          8.25590733e-003, 4.51450974e-001, 5.18643670e-002 ]
      - [ 2.24444438e-002, 5.54823518e-001, 6.65183552e-003,
          1.01207785e-001, 4.47372556e-001, 6.51199996e-001,
          6.06999993e-001, 9.84452292e-002, 2.86048949e-002,
          1.64924227e-002, 4.13803935e-001, 1.00937881e-001 ]
      - [ 2.24444438e-002, 5.30352950e-001, 9.15167108e-003,
          9.06649083e-002, 4.69333321e-001, 6.48400009e-001,
          6.02800012e-001, 1.00410715e-001, 2.34469622e-002,
          1.44443763e-002, 4.36862737e-001, 1.05241165e-001 ]
      - [ 2.44222224e-001, 5.07137239e-001, 8.42157602e-001,
          7.22942725e-002, 2.50352949e-001, 6.01599991e-001,
          5.48600018e-001, 6.37622252e-002, 1.00876158e-002,
          9.17387567e-003, 2.34196082e-001, 5.91975190e-002 ]
      - [ 4.88888891e-003, 4.86117661e-001, 6.53197244e-003,
          2.74106245e-002, 4.90823537e-001, 6.65000021e-001,
          5.83400011e-001, 1.12859672e-002, 2.31516734e-002,
          7.33212102e-003, 4.58509803e-001, 1.23840021e-002 ]
      - [ 1.99555561e-001, 5.40392160e-001, 7.93790221e-001,
          1.74384117e-001, 3.16235304e-001, 6.34400010e-001,
          5.63399971e-001, 1.58389181e-001, 1.70458201e-002,
          1.82690993e-002, 2.91921556e-001, 1.55898824e-001 ]
      - [ 1.48888892e-002, 5.22039235e-001, 6.06141426e-003,
          8.99795741e-002, 2.83607841e-001, 6.03600025e-001,
          5.62399983e-001, 6.36080131e-002, 1.00079970e-002,
          8.99777748e-003, 2.63372540e-001, 6.00774512e-002 ]
      - [ 2.13333331e-002, 5.93725502e-001, 7.48991081e-003,
          5.18012084e-002, 4.20705885e-001, 6.61199987e-001,
          6.14000022e-001, 3.54607068e-002, 2.06455812e-002,
          8.48528091e-003, 3.85098040e-001, 3.83166149e-002 ]
      - [ 7.55555555e-003, 4.71529424e-001, 9.87827126e-003,
          2.87184697e-002, 5.02431393e-001, 6.56599998e-001,
          5.82400024e-001, 2.31790487e-002, 1.93328727e-002,
          7.54718482e-003, 4.71215695e-001, 2.39535794e-002 ]
      - [ 1.02222227e-002, 4.51921582e-001, 7.48991081e-003,
          2.26333793e-002, 4.41411763e-001, 6.28600001e-001,
          5.69400012e-001, 2.46072747e-002, 9.17387567e-003,
          5.87877538e-003, 4.13019598e-001, 2.52676178e-002 ]
      - [ 3.17777768e-002, 5.53411782e-001, 5.89622185e-003,
          2.33920570e-002, 4.40784305e-001, 6.35200024e-001,
          6.10000014e-001, 2.77272705e-002, 1.34104434e-002,
          2.82842712e-003, 4.08470601e-001, 2.65091341e-002 ]
      - [ 9.44888890e-001, 6.06901944e-001, 3.85962576e-001,
          6.85095489e-002, 2.19294116e-001, 6.27399981e-001,
          5.46199977e-001, 1.95326377e-002, 2.19308008e-002,
          1.06883114e-002, 2.03294113e-001, 1.81860793e-002 ]
      - [ 4.24444452e-002, 3.48705888e-001, 3.83460522e-002,
          2.42651775e-001, 6.48156881e-001, 5.83599985e-001,
          5.76200008e-001, 3.97197187e-001, 7.07966089e-002,
          2.26768609e-002, 6.26666665e-001, 4.14935976e-001 ]
      - [ 1.62222218e-002, 5.07764697e-001, 6.97083864e-003,
          7.50016421e-002, 5.43843150e-001, 6.69799984e-001,
          6.06400013e-001, 1.01881854e-001, 1.68475509e-002,
          8.72696936e-003, 5.11529386e-001, 1.08033791e-001 ]
      - [ 8.00000038e-003, 4.46588248e-001, 7.08327908e-003,
          5.18165268e-002, 4.38901961e-001, 6.28199995e-001,
          5.66799998e-001, 5.68205044e-002, 1.01508619e-002,
          8.89044441e-003, 4.10509795e-001, 5.75921685e-002 ]
      - [ 2.88888887e-002, 4.19921577e-001, 1.53960073e-002,
          6.77685216e-002, 5.61254919e-001, 6.15800023e-001,
          5.86399972e-001, 1.00153521e-001, 2.90764514e-002,
          9.17387567e-003, 5.32549024e-001, 1.05052471e-001 ]
      - [ 3.55555560e-003, 5.36784291e-001, 5.33333328e-003,
          6.45984188e-002, 3.29411775e-001, 6.38599992e-001,
          5.69199979e-001, 5.47343232e-002, 6.01331843e-003,
          9.24337562e-003, 3.02274495e-001, 5.44125810e-002 ]
      - [ 2.13333331e-002, 5.94352961e-001, 4.07340052e-003,
          7.82371312e-002, 4.48156863e-001, 6.69600010e-001,
          6.20599985e-001, 5.94900511e-002, 1.97828207e-002,
          1.53153520e-002, 4.10352945e-001, 6.36142492e-002 ]
      - [ 1.13333333e-002, 5.29254913e-001, 8.59514624e-003,
          8.91255140e-002, 5.01019597e-001, 6.77800000e-001,
          6.02400005e-001, 8.85056183e-002, 3.78502309e-002,
          1.72325280e-002, 4.65568632e-001, 9.37905982e-002 ]
      - [ 6.66000009e-001, 3.79294127e-001, 9.10223544e-001,
          6.54072464e-002, 2.15843141e-001, 5.64400017e-001,
          5.19599974e-001, 2.04700176e-002, 1.45106856e-002,
          1.97828207e-002, 2.07215682e-001, 1.67670324e-002 ]
      - [ 8.88888910e-003, 5.03686249e-001, 5.44331037e-003,
          4.03395593e-002, 4.61490184e-001, 6.57800019e-001,
          5.86799979e-001, 4.67544161e-002, 2.13691369e-002,
          9.32952296e-003, 4.28862751e-001, 4.66035306e-002 ]
      - [ 1.26666669e-002, 4.01098043e-001, 8.61809775e-003,
          1.65945701e-002, 2.51294106e-001, 5.66399992e-001,
          5.35799980e-001, 1.31606823e-002, 7.22218817e-003,
          3.66606051e-003, 2.36549020e-001, 1.12947533e-002 ]
      - [ 4.76666659e-001, 4.00627464e-001, 9.79901731e-001,
          3.44071947e-002, 2.79843152e-001, 5.82199991e-001,
          5.31199992e-001, 1.87500808e-002, 1.26743838e-002,
          1.39370011e-002, 2.63843149e-001, 1.76096521e-002 ]
      - [ 8.85777771e-001, 4.50980395e-001, 5.23323476e-001,
          6.67389631e-002, 1.68941170e-001, 5.70599973e-001,
          5.09999990e-001, 2.15834230e-002, 1.58290863e-002,
          1.81107707e-002, 1.67215690e-001, 1.69435944e-002 ]
      - [ 1.68888886e-002, 3.35843146e-001, 1.42222224e-002,
          9.67672616e-002, 5.79764724e-001, 6.00000024e-001,
          5.59000015e-001, 7.01337457e-002, 1.41421352e-002,
          2.52982210e-002, 5.53725481e-001, 7.30545744e-002 ]
      - [ 2.48888880e-002, 6.14901960e-001, 6.37897803e-003,
          5.62537685e-002, 3.19058836e-001, 6.33199990e-001,
          5.96400023e-001, 4.84302528e-002, 9.74884629e-003,
          5.30659966e-003, 2.90666670e-001, 4.76267971e-002 ]
      - [ 2.68888883e-002, 4.40313727e-001, 5.14481636e-003,
          2.39370074e-002, 5.27529418e-001, 6.21999979e-001,
          5.86199999e-001, 2.75586043e-002, 8.00000038e-003,
          8.13879631e-003, 4.98352945e-001, 2.78094355e-002 ]
      - [ 6.74000025e-001, 6.30588233e-001, 9.24742043e-001,
          9.30334181e-002, 3.06352943e-001, 6.71199977e-001,
          5.79200029e-001, 4.73657213e-002, 1.96529888e-002,
          1.25475097e-002, 2.73098052e-001, 5.08288294e-002 ]
      - [ 5.94666660e-001, 3.78666669e-001, 9.70190167e-001,
          4.06457894e-002, 5.23607850e-001, 6.30800009e-001,
          5.48600018e-001, 4.18506712e-002, 1.48808602e-002,
          6.64529903e-003, 4.96784300e-001, 4.33411449e-002 ]
      - [ 1.02222227e-002, 4.82666671e-001, 1.24444440e-002,
          3.77900265e-002, 4.82509792e-001, 6.53599977e-001,
          5.83800018e-001, 2.26552822e-002, 2.83577144e-002,
          7.63151376e-003, 4.51294124e-001, 2.43886113e-002 ]
      - [ 2.91555554e-001, 5.35058796e-001, 8.77252281e-001,
          1.93695411e-001, 4.33882356e-001, 6.37399971e-001,
          5.88000000e-001, 1.84687287e-001, 2.31795087e-001,
          1.35587603e-001, 3.91999990e-001, 8.61542523e-002 ]
      - [ 1.48888892e-002, 4.85176474e-001, 1.24603072e-002,
          5.17782234e-002, 4.76549029e-001, 6.45799994e-001,
          5.86199999e-001, 4.15533222e-002, 2.89385561e-002,
          4.27083112e-003, 4.44705874e-001, 4.24905121e-002 ]
      - [ 3.24444436e-002, 4.30117637e-001, 1.02704177e-002,
          4.71242592e-002, 5.44470608e-001, 6.09600008e-001,
          5.89800000e-001, 7.80975372e-002, 1.43999998e-002,
          8.70861672e-003, 5.15921593e-001, 8.03019926e-002 ]
      - [ 2.42222231e-002, 5.77254891e-001, 5.33333328e-003,
          3.38491090e-002, 4.20862734e-001, 6.50200009e-001,
          6.09600008e-001, 3.20208259e-002, 1.96936540e-002,
          4.83321818e-003, 3.86823535e-001, 3.24180014e-002 ]
      - [ 1.06666666e-002, 4.43137258e-001, 2.30768975e-002,
          6.11948334e-002, 5.39294124e-001, 6.49399996e-001,
          5.80399990e-001, 6.41669929e-002, 4.59843464e-002,
          8.44748504e-003, 5.09490192e-001, 6.64753467e-002 ]
      - [ 5.92222214e-001, 5.52470565e-001, 9.57228482e-001,
          2.60869563e-001, 2.58196086e-001, 6.17399991e-001,
          5.47800004e-001, 1.27737403e-001, 3.89994867e-002,
          1.94072146e-002, 2.39686280e-001, 1.24126457e-001 ]
      - [ 4.00666654e-001, 3.97333324e-001, 9.64220762e-001,
          3.95096727e-002, 2.62588233e-001, 5.74800014e-001,
          5.32400012e-001, 2.55370736e-002, 1.95959187e-003,
          1.17029911e-002, 2.47529417e-001, 2.38123573e-002 ]
      - [ 2.24444438e-002, 5.30352950e-001, 9.15167108e-003,
          9.06649083e-002, 4.69333321e-001, 6.48400009e-001,
          6.02800012e-001, 1.00410715e-001, 2.34469622e-002,
          1.44443763e-002, 4.36862737e-001, 1.05241165e-001 ]
      - [ 8.88888910e-003, 4.81568635e-001, 8.88888910e-003,
          3.65272872e-002, 4.97882366e-001, 6.57400012e-001,
          5.86199999e-001, 3.39573734e-002, 2.00239848e-002,
          4.27083112e-003, 4.65882361e-001, 3.61176208e-002 ]
      - [ 1.06666666e-002, 5.52313745e-001, 1.17252497e-002,
          8.94366205e-002, 4.29647058e-001, 6.65799975e-001,
          5.97000003e-001, 7.94325471e-002, 3.25797498e-002,
          1.46969389e-002, 3.94980401e-001, 8.47917050e-002 ]
      - [ 2.28888895e-002, 4.47686285e-001, 1.51763298e-002,
          5.32963276e-002, 5.14352918e-001, 6.27200007e-001,
          5.84999979e-001, 6.19872622e-002, 2.85769142e-002,
          8.00000038e-003, 4.84549016e-001, 6.45507947e-002 ]
      - [ 2.39111111e-001, 5.58745086e-001, 8.47890496e-001,
          5.14707714e-002, 3.20470601e-001, 6.47599995e-001,
          5.68799973e-001, 4.13978584e-002, 8.99777748e-003,
          8.13879631e-003, 2.92549014e-001, 4.07627672e-002 ]
      - [ 2.44444441e-002, 4.21803921e-001, 1.25707872e-002,
          5.88850044e-002, 5.11686265e-001, 6.14000022e-001,
          5.78000009e-001, 4.77723740e-002, 2.88444106e-002,
          6.92820316e-003, 4.83137250e-001, 4.98494245e-002 ]
      - [ 1.60666659e-001, 5.69882333e-001, 7.27796733e-001,
          1.50584787e-001, 3.46666664e-001, 6.57199979e-001,
          5.78199983e-001, 1.52958706e-001, 1.38794817e-002,
          1.67044904e-002, 3.17019612e-001, 1.52888656e-001 ]
      - [ 2.53333338e-002, 4.00000006e-001, 1.22040268e-002,
          5.59886247e-002, 2.86431372e-001, 5.62600017e-001,
          5.45199990e-001, 3.52474563e-002, 6.39999984e-003,
          8.70861672e-003, 2.68862754e-001, 3.14235389e-002 ]
      - [ 7.13777781e-001, 5.58901966e-001, 8.90255153e-001,
          5.97645566e-002, 3.13882351e-001, 6.46799982e-001,
          5.62399983e-001, 4.47909012e-002, 1.12712020e-002,
          9.43186134e-003, 2.86431372e-001, 4.47909012e-002 ]
      - [ 2.35555563e-002, 3.77568632e-001, 1.30639449e-002,
          3.40332426e-002, 5.51999986e-001, 6.04799986e-001,
          5.70400000e-001, 3.76822464e-002, 7.19999988e-003,
          1.23028448e-002, 5.24235308e-001, 3.86209041e-002 ]
      - [ 2.68888883e-002, 4.40313727e-001, 5.14481636e-003,
          2.39370074e-002, 5.27529418e-001, 6.21999979e-001,
          5.86199999e-001, 2.75586043e-002, 8.00000038e-003,
          8.13879631e-003, 4.98352945e-001, 2.78094355e-002 ]
      - [ 1.24444440e-002, 4.77647066e-001, 7.22136768e-003,
          7.38983825e-002, 4.88627464e-001, 6.48800015e-001,
          5.84399998e-001, 9.02184919e-002, 9.91160981e-003,
          1.17711509e-002, 4.58039224e-001, 9.33261886e-002 ]
      - [ 1.75555553e-002, 5.59372544e-001, 1.02704177e-002,
          3.50640453e-002, 4.37490195e-001, 6.60600007e-001,
          6.04200006e-001, 3.31891403e-002, 9.08625312e-003,
          1.31696621e-002, 4.03137267e-001, 3.42134833e-002 ]
      - [ 1.64444447e-002, 5.44941187e-001, 9.67624038e-003,
          1.10202022e-001, 2.05019608e-001, 5.83800018e-001,
          5.51999986e-001, 5.81407435e-002, 9.06862691e-003,
          1.16619039e-002, 1.94352940e-001, 5.19484580e-002 ]
      - [ 1.31111108e-002, 5.01019597e-001, 1.17083909e-002,
          2.90618390e-002, 4.65882361e-001, 6.51400030e-001,
          5.88800013e-001, 2.61625946e-002, 2.18210910e-002,
          5.85149555e-003, 4.34196085e-001, 2.61170547e-002 ]
      - [ 4.44444455e-003, 4.71215695e-001, 1.08866207e-002,
          3.91920395e-002, 2.93176472e-001, 6.02999985e-001,
          5.50400019e-001, 2.06869449e-002, 6.92820316e-003,
          1.12853888e-002, 2.72784323e-001, 1.91686600e-002 ]
      - [ 3.26666653e-001, 4.00470585e-001, 8.99278164e-001,
          4.38870266e-002, 2.28392154e-001, 5.63000023e-001,
          5.30399978e-001, 3.38696204e-002, 1.64924227e-002,
          2.03803834e-002, 2.17411771e-001, 2.85278540e-002 ]
      - [ 2.71111112e-002, 4.53960776e-001, 1.00958366e-002,
          4.93634865e-002, 5.11843145e-001, 6.21200025e-001,
          5.88599980e-001, 6.66690618e-002, 2.21413635e-002,
          6.64529903e-003, 4.82039213e-001, 6.93600252e-002 ]
      - [ 1.40000004e-002, 5.31921566e-001, 8.38576071e-003,
          1.00882828e-001, 3.97647053e-001, 6.42199993e-001,
          5.84399998e-001, 1.07317954e-001, 7.52595486e-003,
          1.30598620e-002, 3.67215693e-001, 1.08418763e-001 ]
      - [ 1.06666666e-002, 5.38666666e-001, 4.35464829e-003,
          1.78001523e-002, 4.51607853e-001, 6.68799996e-001,
          5.96599996e-001, 1.42046893e-002, 1.42211113e-002,
          4.66476148e-003, 4.16627437e-001, 1.43090608e-002 ]
      - [ 1.26666669e-002, 5.41803896e-001, 4.98887664e-003,
          4.98832427e-002, 4.32941169e-001, 6.59799993e-001,
          5.95799983e-001, 2.98797898e-002, 1.84347499e-002,
          1.25475097e-002, 3.99529397e-001, 3.23751345e-002 ]
      - [ 2.55555548e-002, 5.34588218e-001, 7.02728378e-003,
          4.62745652e-002, 4.64941174e-001, 6.43000007e-001,
          6.06000006e-001, 3.81271504e-002, 1.09544508e-002,
          1.13137085e-002, 4.32156861e-001, 4.01497595e-002 ]
      - [ 2.75555551e-002, 4.38274503e-001, 9.15167108e-003,
          3.80098894e-002, 5.29254913e-001, 6.19199991e-001,
          5.86399972e-001, 5.40724210e-002, 1.54090878e-002,
          7.22218817e-003, 5.00862718e-001, 5.66719137e-002 ]
      - [ 1.95555557e-002, 4.79843140e-001, 5.55110956e-003,
          3.30993496e-002, 5.08549035e-001, 6.42000020e-001,
          5.92800021e-001, 5.58431521e-002, 8.00000038e-003,
          4.96386923e-003, 4.77647066e-001, 5.64298369e-002 ]
      - [ 2.97777783e-002, 4.44392145e-001, 1.17083909e-002,
          2.42662802e-002, 5.13098061e-001, 6.16400003e-001,
          5.88400006e-001, 2.26771645e-002, 1.56256203e-002,
          1.31818056e-002, 4.83450979e-001, 2.29856540e-002 ]
      - [ 4.08888906e-002, 7.06980407e-001, 1.20077342e-001,
          1.30119532e-001, 1.86196074e-001, 5.69199979e-001,
          5.83999991e-001, 2.84304261e-001, 2.04032943e-001,
          1.35499075e-001, 1.68470591e-001, 1.72747791e-001 ]
      - [ 2.40000002e-002, 6.05647087e-001, 8.73194821e-003,
          5.19961752e-002, 3.35999995e-001, 6.36399984e-001,
          5.97199976e-001, 4.03788872e-002, 1.37171429e-002,
          1.06131993e-002, 3.06196064e-001, 3.90805081e-002 ]
      - [ 1.88888889e-002, 4.25882339e-001, 1.53960073e-002,
          2.66323388e-002, 5.11843145e-001, 6.22399986e-001,
          5.77000022e-001, 3.08693554e-002, 2.22925991e-002,
          8.94427206e-003, 4.83450979e-001, 3.17720212e-002 ]
      - [ 1.33333337e-002, 4.66039211e-001, 1.53960073e-002,
          5.92460968e-002, 4.97725487e-001, 6.45600021e-001,
          5.83199978e-001, 5.85826784e-002, 3.17893066e-002,
          5.57135511e-003, 4.66980398e-001, 6.05806112e-002 ]
      - [ 3.35555561e-002, 4.12549019e-001, 1.27579561e-002,
          4.90469672e-002, 5.82745075e-001, 6.10000014e-001,
          5.90799987e-001, 4.31277603e-002, 2.77128126e-002,
          3.66606051e-003, 5.54666638e-001, 4.53193225e-002 ]
      - [ 3.20000015e-002, 6.56156838e-001, 9.04310681e-003,
          2.04769462e-001, 2.73411751e-001, 6.14199996e-001,
          5.95799983e-001, 1.08089790e-001, 2.73759011e-002,
          1.89060830e-002, 2.49254897e-001, 1.05971031e-001 ]
      - [ 1.06666666e-002, 5.38666666e-001, 4.35464829e-003,
          1.78001523e-002, 4.51607853e-001, 6.68799996e-001,
          5.96599996e-001, 1.42046893e-002, 1.42211113e-002,
          4.66476148e-003, 4.16627437e-001, 1.43090608e-002 ]
      - [ 1.24444440e-002, 5.29725492e-001, 4.74536791e-003,
          2.74504051e-002, 4.56470579e-001, 6.62599981e-001,
          5.95600009e-001, 1.62135903e-002, 1.60299726e-002,
          5.87877538e-003, 4.22431380e-001, 1.77499242e-002 ]
      - [ 5.28888889e-002, 3.98117661e-001, 3.82482082e-001,
          7.60849938e-002, 5.14352918e-001, 6.19799972e-001,
          5.65400004e-001, 8.44447017e-002, 2.69042756e-002,
          1.09251998e-002, 4.86588240e-001, 8.57919455e-002 ]
      - [ 1.48888892e-002, 4.52078432e-001, 7.51623744e-003,
          3.31472680e-002, 4.94117647e-001, 6.34599984e-001,
          5.78999996e-001, 2.18211133e-002, 1.26237869e-002,
          8.48528091e-003, 4.64313716e-001, 2.34640390e-002 ]
      - [ 1.33333337e-002, 5.56392133e-001, 9.93807986e-003,
          4.44485210e-002, 4.33098048e-001, 6.64600015e-001,
          6.00399971e-001, 5.79510443e-002, 2.18942910e-002,
          4.83321818e-003, 3.98274511e-001, 5.88850044e-002 ]
      - [ 1.66666675e-002, 5.57803929e-001, 7.69800367e-003,
          5.42464256e-002, 3.95294130e-001, 6.47800028e-001,
          5.94600022e-001, 3.98397185e-002, 1.62677597e-002,
          7.95989949e-003, 3.63294125e-001, 4.07554656e-002 ]
      - [ 1.64444447e-002, 4.80156869e-001, 1.15384487e-002,
          4.04009894e-002, 4.65882361e-001, 6.38199985e-001,
          5.83999991e-001, 4.66630943e-002, 1.62185077e-002,
          4.00000019e-003, 4.35294122e-001, 4.61822934e-002 ]
      - [ 1.02222227e-002, 4.82666671e-001, 1.24444440e-002,
          3.77900265e-002, 4.82509792e-001, 6.53599977e-001,
          5.83800018e-001, 2.26552822e-002, 2.83577144e-002,
          7.63151376e-003, 4.51294124e-001, 2.43886113e-002 ]
      - [ 2.26666667e-002, 4.51607853e-001, 5.37024252e-003,
          3.57504599e-002, 5.04627466e-001, 6.29400015e-001,
          5.83599985e-001, 4.41911221e-002, 9.92773846e-003,
          6.01331843e-003, 4.75137264e-001, 4.74891290e-002 ]
      - [ 1.98222220e-001, 6.89254880e-001, 7.92898834e-001,
          2.36044869e-001, 2.17411771e-001, 6.39800012e-001,
          5.74800014e-001, 1.64942563e-001, 1.18253967e-002,
          1.73158888e-002, 1.96078435e-001, 1.60861343e-001 ]
      - [ 1.31111108e-002, 4.77333337e-001, 1.17083909e-002,
          4.28693704e-002, 4.86274511e-001, 6.47000015e-001,
          5.85200012e-001, 3.81219462e-002, 2.20907219e-002,
          7.73563189e-003, 4.55058813e-001, 3.92426290e-002 ]
      - [ 8.98000002e-001, 4.24313724e-001, 5.28215051e-001,
          5.99667169e-002, 2.04392150e-001, 5.71399987e-001,
          5.17400026e-001, 3.93587388e-002, 8.25590733e-003,
          9.43186134e-003, 1.96862742e-001, 3.44302543e-002 ]
      - [ 3.35555561e-002, 4.61960793e-001, 9.67624038e-003,
          3.76638137e-002, 2.68078417e-001, 5.65199971e-001,
          5.56999981e-001, 1.08832456e-002, 8.23650416e-003,
          8.48528091e-003, 2.51607835e-001, 1.03698131e-002 ]
      - [ 7.55555555e-003, 4.46745098e-001, 1.59876496e-002,
          9.04633626e-002, 4.42666680e-001, 6.30200028e-001,
          5.65800011e-001, 6.78197369e-002, 5.98665187e-003,
          2.39466075e-002, 4.14588243e-001, 6.93457201e-002 ]
      - [ 2.33333334e-002, 6.18509829e-001, 4.44444455e-003,
          2.38331780e-002, 3.03686261e-001, 6.29800022e-001,
          5.93200028e-001, 1.69728417e-002, 9.99199692e-003,
          4.80000023e-003, 2.76862741e-001, 1.69611499e-002 ]
      - [ 1.04444446e-002, 5.65803945e-001, 5.72626619e-003,
          4.29849140e-002, 3.40549022e-001, 6.41799986e-001,
          5.82400024e-001, 2.33241059e-002, 6.85857143e-003,
          1.06282644e-002, 3.10901970e-001, 2.44495478e-002 ]
      - [ 2.02222224e-002, 5.10274529e-001, 8.24321620e-003,
          8.58324096e-002, 4.60862756e-001, 6.41600013e-001,
          5.93800008e-001, 8.52176622e-002, 2.36169435e-002,
          1.27373468e-002, 4.29019600e-001, 8.77661407e-002 ]
      - [ 2.26666667e-002, 5.47450960e-001, 7.64651131e-003,
          9.68983918e-002, 3.68784308e-001, 6.27600014e-001,
          5.87000012e-001, 8.59236643e-002, 1.17029911e-002,
          1.26491105e-002, 3.40705872e-001, 8.49319845e-002 ]
      - [ 1.44444443e-002, 4.88156855e-001, 1.21716121e-002,
          2.66435090e-002, 4.91450995e-001, 6.49600029e-001,
          5.89999974e-001, 3.43379304e-002, 1.52105223e-002,
          1.13137085e-002, 4.60549027e-001, 3.58474441e-002 ]
      - [ 2.55555548e-002, 4.03921574e-001, 2.41395123e-002,
          5.23251891e-002, 5.67215681e-001, 6.15400016e-001,
          5.81799984e-001, 7.68232793e-002, 3.83583121e-002,
          1.09105455e-002, 5.39607823e-001, 7.71492869e-002 ]
      - [ 2.48888880e-002, 5.77411771e-001, 5.55110956e-003,
          4.96640094e-002, 3.50901961e-001, 6.30599976e-001,
          5.93400002e-001, 4.95059602e-002, 7.65245082e-003,
          7.33212102e-003, 3.21882367e-001, 4.81240861e-002 ]
      - [ 3.55555560e-003, 5.36784291e-001, 5.33333328e-003,
          6.45984188e-002, 3.29411775e-001, 6.38599992e-001,
          5.69199979e-001, 5.47343232e-002, 6.01331843e-003,
          9.24337562e-003, 3.02274495e-001, 5.44125810e-002 ]
      - [ 3.22222225e-002, 5.77568650e-001, 6.28539361e-003,
          3.89915667e-002, 3.69882345e-001, 6.21999979e-001,
          6.01999998e-001, 4.05015349e-002, 1.01980390e-002,
          6.92820316e-003, 3.40392143e-001, 3.75979096e-002 ]
      - [ 3.02222222e-002, 5.99529386e-001, 7.74915377e-003,
          8.75488594e-002, 3.39137256e-001, 6.25000000e-001,
          5.99399984e-001, 7.45040029e-002, 1.26491105e-002,
          9.51630156e-003, 3.11215699e-001, 7.26760998e-002 ]
      - [ 2.55555548e-002, 5.43372571e-001, 2.26623081e-002,
          6.38943240e-002, 2.75137246e-001, 5.94399989e-001,
          5.69599986e-001, 6.15455955e-002, 1.36586968e-002,
          1.89567935e-002, 2.55843133e-001, 5.51531948e-002 ]
      - [ 3.98444444e-001, 4.83137250e-001, 9.70556796e-001,
          3.50017510e-002, 3.54039222e-001, 6.31200016e-001,
          5.56200027e-001, 2.24397015e-002, 1.20929731e-002,
          1.03072794e-002, 3.29254895e-001, 2.11844686e-002 ]
      - [ 1.71111114e-002, 5.95921576e-001, 1.29271466e-002,
          4.99229990e-002, 3.22980404e-001, 6.38999999e-001,
          5.89399993e-001, 4.11189534e-002, 1.26491105e-002,
          9.92773846e-003, 2.94745088e-001, 4.04378064e-002 ]
      - [ 4.37333345e-001, 5.52941203e-001, 9.86759365e-001,
          5.34505919e-002, 3.15294117e-001, 6.44400001e-001,
          5.65599978e-001, 4.63431142e-002, 9.51630156e-003,
          7.11055566e-003, 2.87999988e-001, 4.65076454e-002 ]
      - [ 9.22222197e-001, 3.98588240e-001, 3.11111119e-002,
          8.19466785e-002, 1.58588231e-001, 5.61999977e-001,
          4.88000005e-001, 1.82405449e-002, 1.67332012e-002,
          1.26491105e-002, 1.59686267e-001, 1.51901171e-002 ]
      - [ 1.64444447e-002, 5.86039245e-001, 1.01737985e-002,
          5.59035167e-002, 3.38352948e-001, 6.40399992e-001,
          5.89800000e-001, 4.75329757e-002, 1.23028448e-002,
          8.23650416e-003, 3.08235288e-001, 4.67692688e-002 ]
      - [ 7.08222210e-001, 4.05490190e-001, 8.71712506e-001,
          8.77943933e-002, 3.25647056e-001, 5.95200002e-001,
          5.29799998e-001, 3.34422328e-002, 2.70525422e-002,
          2.48965863e-002, 3.04941177e-001, 3.23720686e-002 ]
      - [ 2.48888880e-002, 6.15372539e-001, 8.38576071e-003,
          9.63058770e-002, 2.61647046e-001, 6.11800015e-001,
          5.82000017e-001, 6.87350631e-002, 1.38217220e-002,
          8.94427206e-003, 2.40784317e-001, 6.40463009e-002 ]
      - [ 1.37777776e-002, 4.78431374e-001, 6.37897803e-003,
          3.68651971e-002, 3.33019614e-001, 6.05799973e-001,
          5.62200010e-001, 2.38747634e-002, 1.56665239e-002,
          1.02293696e-002, 3.09960783e-001, 2.21011713e-002 ]
      - [ 2.42222231e-002, 5.77254891e-001, 5.33333328e-003,
          3.38491090e-002, 4.20862734e-001, 6.50200009e-001,
          6.09600008e-001, 3.20208259e-002, 1.96936540e-002,
          4.83321818e-003, 3.86823535e-001, 3.24180014e-002 ]
      - [ 1.08888885e-002, 5.30352950e-001, 9.15167108e-003,
          4.08405699e-002, 2.93019623e-001, 6.15400016e-001,
          5.64199984e-001, 3.75001617e-002, 7.95989949e-003,
          1.56665239e-002, 2.70901948e-001, 3.44244912e-002 ]
      - [ 2.55555548e-002, 4.45960790e-001, 1.44016463e-002,
          5.48031479e-002, 5.02431393e-001, 6.18600011e-001,
          5.84800005e-001, 5.63999414e-002, 2.82163080e-002,
          8.23650416e-003, 4.72470582e-001, 5.74369393e-002 ]
      - [ 3.22222225e-002, 5.77568650e-001, 6.28539361e-003,
          3.89915667e-002, 3.69882345e-001, 6.21999979e-001,
          6.01999998e-001, 4.05015349e-002, 1.01980390e-002,
          6.92820316e-003, 3.40392143e-001, 3.75979096e-002 ]
      - [ 3.11111119e-002, 5.56862772e-001, 5.44331037e-003,
          5.58555834e-002, 3.90117645e-001, 6.25000000e-001,
          5.99200010e-001, 6.18446656e-002, 8.94427206e-003,
          7.31026661e-003, 3.60156864e-001, 5.93297556e-002 ]
      - [ 1.79999992e-002, 5.59058845e-001, 9.04310681e-003,
          8.04254264e-002, 3.47921580e-001, 6.32399976e-001,
          5.84999979e-001, 6.85905889e-002, 8.05977639e-003,
          1.20000001e-002, 3.20470601e-001, 6.85905889e-002 ]
      - [ 1.73333324e-002, 5.41960776e-001, 8.50272272e-003,
          2.97133271e-002, 4.55843151e-001, 6.58800006e-001,
          6.02199972e-001, 2.09253356e-002, 7.63151376e-003,
          1.02293696e-002, 4.21490192e-001, 2.12592594e-002 ]
      - [ 4.77777779e-001, 5.12784302e-001, 9.91026402e-001,
          1.08679220e-001, 5.35215676e-001, 6.99800014e-001,
          5.89999974e-001, 1.28847778e-001, 2.21774653e-002,
          1.26491105e-002, 5.00078440e-001, 1.38387844e-001 ]
      - [ 9.17333305e-001, 3.66588235e-001, 3.13199349e-002,
          4.21459228e-002, 1.45098045e-001, 5.51199973e-001,
          4.88799989e-001, 1.75362658e-002, 8.13879631e-003,
          8.13879631e-003, 1.47137254e-001, 1.35689192e-002 ]
      - [ 1.31111108e-002, 5.01019597e-001, 1.17083909e-002,
          2.90618390e-002, 4.65882361e-001, 6.51400030e-001,
          5.88800013e-001, 2.61625946e-002, 2.18210910e-002,
          5.85149555e-003, 4.34196085e-001, 2.61170547e-002 ]
      - [ 2.84444451e-001, 5.89647055e-001, 8.74748647e-001,
          1.55353829e-001, 2.40627453e-001, 6.17600024e-001,
          5.61399996e-001, 7.45292976e-002, 3.22639123e-002,
          1.92914493e-002, 2.22117648e-001, 7.28805587e-002 ]
      - [ 1.13333333e-002, 5.05098045e-001, 1.38706546e-002,
          5.64298369e-002, 3.90117645e-001, 6.34000003e-001,
          5.75999975e-001, 2.11422816e-002, 1.13137085e-002,
          1.85472369e-002, 3.60627443e-001, 1.96036119e-002 ]
      - [ 2.26666667e-002, 6.36862755e-001, 8.84433277e-003,
          4.96999472e-002, 1.95137262e-001, 5.96800029e-001,
          5.68799973e-001, 3.71520072e-002, 1.43888844e-002,
          6.49923086e-003, 1.83529407e-001, 3.27316672e-002 ]
      - [ 1.08888885e-002, 5.30352950e-001, 9.15167108e-003,
          4.08405699e-002, 2.93019623e-001, 6.15400016e-001,
          5.64199984e-001, 3.75001617e-002, 7.95989949e-003,
          1.56665239e-002, 2.70901948e-001, 3.44244912e-002 ]
      - [ 4.77333337e-001, 5.65647066e-001, 9.93648589e-001,
          4.88077216e-002, 3.04784328e-001, 6.45600021e-001,
          5.66999972e-001, 3.29220481e-002, 9.08625312e-003,
          6.32455526e-003, 2.77490199e-001, 3.33531275e-002 ]
      - [ 2.15555560e-002, 6.11137271e-001, 1.38135739e-002,
          3.51205803e-002, 2.33725488e-001, 6.05000019e-001,
          5.74000001e-001, 1.99198592e-002, 1.44222053e-002,
          8.48528091e-003, 2.16313720e-001, 1.69142950e-002 ]
      - [ 8.65999997e-001, 6.00784302e-001, 6.30205274e-001,
          2.61654377e-001, 2.18823522e-001, 6.17799997e-001,
          5.44000030e-001, 1.11999400e-001, 3.34759615e-002,
          2.59229634e-002, 2.03294113e-001, 1.09166466e-001 ]
      - [ 8.35555568e-002, 5.34431398e-001, 5.37267685e-001,
          3.77637669e-002, 4.28235292e-001, 6.70199990e-001,
          5.86399972e-001, 3.25035714e-002, 1.61195528e-002,
          6.64529903e-003, 3.94039214e-001, 3.47257480e-002 ]
      - [ 1.61555558e-001, 5.93254924e-001, 7.27043211e-001,
          9.33400020e-002, 3.37725490e-001, 6.63399994e-001,
          5.84200025e-001, 8.78034309e-002, 1.71394274e-002,
          1.28623480e-002, 3.06039214e-001, 8.65849629e-002 ]
      - [ 1.82222221e-002, 4.91450995e-001, 1.67832952e-002,
          6.99935779e-002, 4.90666658e-001, 6.44999981e-001,
          5.92999995e-001, 7.37411529e-002, 3.27414125e-002,
          1.26491105e-002, 4.59607840e-001, 7.76938349e-002 ]
      - [ 9.74666655e-001, 5.45568645e-001, 1.22040268e-002,
          2.72930413e-001, 2.70901948e-001, 6.20199978e-001,
          5.31400025e-001, 2.13209033e-001, 2.04899982e-002,
          2.52222121e-002, 2.54745096e-001, 2.02243969e-001 ]
      - [ 3.17777768e-002, 3.95137250e-001, 2.04926971e-002,
          9.53576788e-002, 5.66745102e-001, 6.02400005e-001,
          5.81600010e-001, 4.83400449e-002, 9.84682702e-003,
          3.28292549e-002, 5.38980365e-001, 5.23763523e-002 ]
      - [ 4.36444432e-001, 4.34980392e-001, 9.84758317e-001,
          8.08817446e-002, 5.06823540e-001, 6.52800024e-001,
          5.63000023e-001, 8.22004974e-002, 2.24641934e-002,
          1.32664992e-002, 4.77647066e-001, 8.56206417e-002 ]
      - [ 3.24444436e-002, 4.30117637e-001, 1.02704177e-002,
          4.71242592e-002, 5.44470608e-001, 6.09600008e-001,
          5.89800000e-001, 7.80975372e-002, 1.43999998e-002,
          8.70861672e-003, 5.15921593e-001, 8.03019926e-002 ]
      - [ 3.68888900e-002, 4.17568624e-001, 2.21955404e-002,
          2.27100804e-001, 4.42980379e-001, 5.77400029e-001,
          5.68400025e-001, 3.05669904e-001, 2.59414725e-002,
          1.82690993e-002, 4.18980390e-001, 3.00211191e-001 ]
      - [ 7.33333305e-002, 4.18823540e-001, 1.53927997e-001,
          3.46234709e-001, 6.24156892e-001, 5.35000026e-001,
          6.15400016e-001, 1.51814297e-001, 2.74648875e-001,
          1.77536920e-001, 5.75058818e-001, 2.02752464e-002 ]
      - [ 1.77777782e-002, 5.36313713e-001, 9.93807986e-003,
          4.25068513e-002, 4.20862734e-001, 6.45799994e-001,
          5.93599975e-001, 2.80580260e-002, 1.93245951e-002,
          8.25590733e-003, 3.88705879e-001, 2.98232958e-002 ]
      - [ 7.55555555e-003, 4.71529424e-001, 9.87827126e-003,
          2.87184697e-002, 5.02431393e-001, 6.56599998e-001,
          5.82400024e-001, 2.31790487e-002, 1.93328727e-002,
          7.54718482e-003, 4.71215695e-001, 2.39535794e-002 ]
      - [ 3.18444431e-001, 5.28941154e-001, 9.25569415e-001,
          4.64137010e-002, 3.93254906e-001, 6.61800027e-001,
          5.74400008e-001, 1.80271976e-002, 1.69422552e-002,
          1.96611285e-002, 3.62039208e-001, 1.80546902e-002 ]
      - [ 9.76666689e-001, 3.59058827e-001, 1.33333337e-002,
          5.73055260e-002, 2.29176477e-001, 5.64000010e-001,
          5.13599992e-001, 5.53686097e-002, 8.48528091e-003,
          6.01331843e-003, 2.19450980e-001, 4.74264212e-002 ]
      - [ 2.44444441e-002, 5.53725481e-001, 7.02728378e-003,
          1.26200601e-001, 3.64549011e-001, 6.24400020e-001,
          5.88999987e-001, 1.27480879e-001, 1.33626349e-002,
          1.32664992e-002, 3.36627454e-001, 1.23412333e-001 ]
      - [ 1.13333333e-002, 4.59921569e-001, 1.11022191e-002,
          2.29856540e-002, 4.21647072e-001, 6.25000000e-001,
          5.68599999e-001, 2.80049425e-002, 1.41421352e-002,
          8.25590733e-003, 3.93568635e-001, 2.69912258e-002 ]
      - [ 1.31111108e-002, 5.49019635e-001, 1.17083909e-002,
          8.29728469e-002, 2.67137259e-001, 6.08399987e-001,
          5.64599991e-001, 6.15713783e-002, 1.22376466e-002,
          9.76524409e-003, 2.47372553e-001, 5.71686067e-002 ]
      - [ 1.62666664e-001, 4.63058829e-001, 7.24918187e-001,
          4.87894230e-002, 4.02980387e-001, 6.32399976e-001,
          5.62200010e-001, 4.11430709e-002, 1.33026317e-002,
          1.44443763e-002, 3.75215679e-001, 4.08065505e-002 ]
      - [ 2.08888892e-002, 4.90039229e-001, 9.04310681e-003,
          3.95573489e-002, 4.21803921e-001, 6.25400007e-001,
          5.81399977e-001, 2.77344249e-002, 1.38332928e-002,
          1.24963997e-002, 3.92470598e-001, 2.63439659e-002 ]
      - [ 1.31111108e-002, 4.48627442e-001, 9.87827126e-003,
          5.08834459e-002, 3.99686277e-001, 6.13600016e-001,
          5.64400017e-001, 3.56976986e-002, 8.72696936e-003,
          1.47837745e-002, 3.73019606e-001, 3.53766829e-002 ]
      - [ 4.78444457e-001, 4.26509798e-001, 9.89746571e-001,
          5.40173538e-002, 4.03921574e-001, 6.21200025e-001,
          5.51800013e-001, 4.07018848e-002, 1.30476048e-002,
          1.19599327e-002, 3.78196090e-001, 4.01547030e-002 ]
      - [ 3.17555547e-001, 4.80941176e-001, 9.22035754e-001,
          5.15073799e-002, 3.67058814e-001, 6.33000016e-001,
          5.57600021e-001, 3.47885378e-002, 1.05830049e-002,
          2.08076909e-002, 3.40392143e-001, 3.45740132e-002 ]
      - [ 1.40000004e-002, 5.29882371e-001, 8.95530730e-003,
          3.96725386e-002, 3.99215698e-001, 6.42799973e-001,
          5.85799992e-001, 2.53929384e-002, 7.52595486e-003,
          1.48808602e-002, 3.68000001e-001, 2.48679314e-002 ]
      - [ 9.20000002e-002, 6.65568650e-001, 5.29178977e-001,
          1.26818493e-001, 7.95294121e-002, 5.57600021e-001,
          5.29200017e-001, 5.87770902e-002, 1.72325280e-002,
          1.99358966e-002, 9.08235312e-002, 5.09652644e-002 ]
      - [ 1.63555562e-001, 5.11686265e-001, 7.25303352e-001,
          2.20607389e-002, 4.23999995e-001, 6.56799972e-001,
          5.78800023e-001, 3.50951515e-002, 1.09105455e-002,
          1.14122741e-002, 3.92313719e-001, 3.54579091e-002 ]
      - [ 1.17777782e-002, 4.03921574e-001, 6.53197244e-003,
          5.14649898e-002, 4.58352953e-001, 6.12600029e-001,
